{"learner":{"attributes":{"best_iteration":"214","best_ntree_limit":"215"},"feature_names":["Onset_Delta","Diagnosis_Delta","Age","Sex","site_bulbar","site_limb","RiluzoleUse","BMI","Pulse","Respiratory_Rate","BP_Diastolic","BP_Systolic","FVC_perc_new","ALT","AST","UricAcid","BUN","Albumin","AbsNeutroCount","Protein","CK","TotCholesterol","Triglycerides","HbA1c","Hb","Hematocrit","WBC","RBC","Creatinine","Sodium","Potassium","Chloride","Glucose","Platelets","AbsEosinophil","AlkalinePhosphatase","Bicarbonate","Calcium","AbsLymphocyte","AbsMonocyte","AbsBasophil","BilirubinTotal","GGT","PercLymphocytes","PercMonocytes","PercBasophils","Phosphorus","PercEosinophils","alsfrsr","alsfrsr_slope","Adv_Total","Adv_Resp","Adv_Nerv","Adv_Psych","Adv_Metab"],"feature_types":["float","float","float","float","float","float","float","float","float","float","float","float","float","float","float","float","float","float","float","float","float","float","float","float","float","float","float","float","float","float","float","float","float","float","float","float","float","float","float","float","float","float","float","float","float","float","float","float","float","float","float","float","float","float","float"],"gradient_booster":{"model":{"gbtree_model_param":{"num_parallel_tree":"1","num_trees":"215","size_leaf_vector":"0"},"tree_info":[0,0,0,0,0,0,0,0,0,0,0,0,0,0,0,0,0,0,0,0,0,0,0,0,0,0,0,0,0,0,0,0,0,0,0,0,0,0,0,0,0,0,0,0,0,0,0,0,0,0,0,0,0,0,0,0,0,0,0,0,0,0,0,0,0,0,0,0,0,0,0,0,0,0,0,0,0,0,0,0,0,0,0,0,0,0,0,0,0,0,0,0,0,0,0,0,0,0,0,0,0,0,0,0,0,0,0,0,0,0,0,0,0,0,0,0,0,0,0,0,0,0,0,0,0,0,0,0,0,0,0,0,0,0,0,0,0,0,0,0,0,0,0,0,0,0,0,0,0,0,0,0,0,0,0,0,0,0,0,0,0,0,0,0,0,0,0,0,0,0,0,0,0,0,0,0,0,0,0,0,0,0,0,0,0,0,0,0,0,0,0,0,0,0,0,0,0,0,0,0,0,0,0,0,0,0,0,0,0,0,0,0,0,0,0],"trees":[{"base_weights":[-0E0,3.9388648E-1,-5.509041E-1,-0E0,5.236744E-1,-0E0,-6.436177E-1],"categories":[],"categories_nodes":[],"categories_segments":[],"categories_sizes":[],"default_left":[1,1,1,0,0,0,0],"id":0,"left_children":[1,3,5,-1,-1,-1,-1],"loss_changes":[2.4773025E3,3.2840082E2,1.9243628E2,0E0,0E0,0E0,0E0],"parents":[2147483647,0,0,1,1,2,2],"right_children":[2,4,6,-1,-1,-1,-1],"split_conditions":[-5.2263916E-1,-7.535E2,6.04861E-1,-0E0,1.0473489E-1,-0E0,-1.2872355E-1],"split_indices":[49,0,12,0,0,0,0],"split_type":[0,0,0,0,0,0,0],"sum_hessian":[1.0355074E4,6.0312944E3,4.32378E3,1.6387421E3,4.3925522E3,8.250928E2,3.4986873E3],"tree_param":{"num_deleted":"0","num_feature":"55","num_nodes":"7","size_leaf_vector":"0"}},{"base_weights":[-0E0,3.1345004E-1,-4.8855364E-1,4.6050858E-1,7.0006517E-3,-0E0,-5.477742E-1],"categories":[],"categories_nodes":[],"categories_segments":[],"categories_sizes":[],"default_left":[1,1,1,0,0,0,0],"id":1,"left_children":[1,3,5,-1,-1,-1,-1],"loss_changes":[1.7336064E3,2.6341992E2,1.1157556E2,0E0,0E0,0E0,0E0],"parents":[2147483647,0,0,1,1,2,2],"right_children":[2,4,6,-1,-1,-1,-1],"split_conditions":[-4.8607987E-1,-7.5824356E-1,5.6721413E-1,9.2101716E-2,1.4001303E-3,-0E0,-1.0955484E-1],"split_indices":[49,49,12,0,0,0,0],"split_type":[0,0,0,0,0,0,0],"sum_hessian":[1.0333687E4,6.418357E3,3.9153298E3,3.9467268E3,2.47163E3,5.3123956E2,3.3840903E3],"tree_param":{"num_deleted":"0","num_feature":"55","num_nodes":"7","size_leaf_vector":"0"}},{"base_weights":[-0E0,2.3734829E-1,-4.7111985E-1,-0E0,3.8128155E-1,-0E0,-5.1817733E-1],"categories":[],"categories_nodes":[],"categories_segments":[],"categories_sizes":[],"default_left":[1,1,1,0,0,0,0],"id":2,"left_children":[1,3,5,-1,-1,-1,-1],"loss_changes":[1.2667754E3,2.493995E2,6.697571E1,0E0,0E0,0E0,0E0],"parents":[2147483647,0,0,1,1,2,2],"right_children":[2,4,6,-1,-1,-1,-1],"split_conditions":[-4.3043983E-1,-6.705E2,5.670581E-1,-0E0,7.625631E-2,-0E0,-1.0363547E-1],"split_indices":[49,0,12,0,0,0,0],"split_type":[0,0,0,0,0,0,0],"sum_hessian":[1.0323594E4,7.026524E3,3.2970703E3,2.8943833E3,4.13214E3,4.0889917E2,2.8881711E3],"tree_param":{"num_deleted":"0","num_feature":"55","num_nodes":"7","size_leaf_vector":"0"}},{"base_weights":[-0E0,2.8316042E-1,-2.8860387E-1,-0E0,3.846369E-1,-2.813059E-2,-4.5981196E-1],"categories":[],"categories_nodes":[],"categories_segments":[],"categories_sizes":[],"default_left":[1,1,1,0,0,0,0],"id":3,"left_children":[1,3,5,-1,-1,-1,-1],"loss_changes":[9.157985E2,1.5368164E2,1.9219196E2,0E0,0E0,0E0,0E0],"parents":[2147483647,0,0,1,1,2,2],"right_children":[2,4,6,-1,-1,-1,-1],"split_conditions":[-6.056301E-1,-6.975E2,-3.7214726E-1,-0E0,7.6927386E-2,-5.6261183E-3,-9.196239E-2],"split_indices":[49,0,49,0,0,0,0],"split_type":[0,0,0,0,0,0,0],"sum_hessian":[1.0206415E4,5.157523E3,5.048892E3,1.5526292E3,3.6048936E3,2.4649675E3,2.5839246E3],"tree_param":{"num_deleted":"0","num_feature":"55","num_nodes":"7","size_leaf_vector":"0"}},{"base_weights":[-0E0,2.526792E-1,-2.304748E-1,-0E0,3.6219266E-1,-3.1894377E-1,3.6417518E-2],"categories":[],"categories_nodes":[],"categories_segments":[],"categories_sizes":[],"default_left":[1,1,1,0,0,0,0],"id":4,"left_children":[1,3,5,-1,-1,-1,-1],"loss_changes":[6.4553485E2,1.181142E2,1.7268137E2,0E0,0E0,0E0,0E0],"parents":[2147483647,0,0,1,1,2,2],"right_children":[2,4,6,-1,-1,-1,-1],"split_conditions":[-6.473278E-1,-6.305E2,5E-1,-0E0,7.243853E-2,-6.378876E-2,7.2835037E-3],"split_indices":[49,0,4,0,0,0,0],"split_type":[0,0,0,0,0,0,0],"sum_hessian":[1.0097167E4,4.726297E3,5.37087E3,1.7822943E3,2.9440024E3,4.2419316E3,1.1289386E3],"tree_param":{"num_deleted":"0","num_feature":"55","num_nodes":"7","size_leaf_vector":"0"}},{"base_weights":[-0E0,1.3855392E-1,-3.5732237E-1,-6.620657E-2,2.0918047E-1,-0E0,-3.858854E-1],"categories":[],"categories_nodes":[],"categories_segments":[],"categories_sizes":[],"default_left":[1,1,1,0,0,0,0],"id":5,"left_children":[1,3,5,-1,-1,-1,-1],"loss_changes":[5.3846344E2,1.3793195E2,3.6074738E1,0E0,0E0,0E0,0E0],"parents":[2147483647,0,0,1,1,2,2],"right_children":[2,4,6,-1,-1,-1,-1],"split_conditions":[-3.7263405E-1,4.5979454E1,5.1725286E-1,-1.3241313E-2,4.1836094E-2,-0E0,-7.717708E-2],"split_indices":[49,2,12,0,0,0,0],"split_type":[0,0,0,0,0,0,0],"sum_hessian":[1.0074271E4,7.570378E3,2.5038933E3,1.5864207E3,5.983957E3,1.8597246E2,2.317921E3],"tree_param":{"num_deleted":"0","num_feature":"55","num_nodes":"7","size_leaf_vector":"0"}},{"base_weights":[-2.4051876E-3,1.9378944E-1,-1.6709504E-1,-0E0,2.9360884E-1,-0E0,-3.7370783E-1],"categories":[],"categories_nodes":[],"categories_segments":[],"categories_sizes":[],"default_left":[1,1,1,0,0,0,0],"id":6,"left_children":[1,3,5,-1,-1,-1,-1],"loss_changes":[3.521001E2,8.0278564E1,1.8737126E2,0E0,0E0,0E0,0E0],"parents":[2147483647,0,0,1,1,2,2],"right_children":[2,4,6,-1,-1,-1,-1],"split_conditions":[-6.999222E-1,-5.985E2,8.1178886E-1,-0E0,5.872177E-2,-0E0,-7.4741565E-2],"split_indices":[49,0,12,0,0,0,0],"split_type":[0,0,0,0,0,0,0],"sum_hessian":[9.978666E3,4.236356E3,5.74231E3,1.7417979E3,2.4945583E3,3.652681E3,2.0896292E3],"tree_param":{"num_deleted":"0","num_feature":"55","num_nodes":"7","size_leaf_vector":"0"}},{"base_weights":[-0E0,8.0850005E-2,-3.231769E-1,1.712222E-1,-6.21734E-2,-3.303331E-1,-0E0],"categories":[],"categories_nodes":[],"categories_segments":[],"categories_sizes":[],"default_left":[1,1,1,0,0,0,0],"id":7,"left_children":[1,3,5,-1,-1,-1,-1],"loss_changes":[2.8840063E2,1.2884958E2,8.996765E0,0E0,0E0,0E0,0E0],"parents":[2147483647,0,0,1,1,2,2],"right_children":[2,4,6,-1,-1,-1,-1],"split_conditions":[-3.015729E-1,7.6890767E-1,-2.235E2,3.424444E-2,-1.243468E-2,-6.606662E-2,-0E0],"split_indices":[49,12,0,0,0,0,0],"split_type":[0,0,0,0,0,0,0],"sum_hessian":[9.929252E3,8.2132705E3,1.7159814E3,5.4010894E3,2.8121807E3,1.7034572E3,1.2524316E1],"tree_param":{"num_deleted":"0","num_feature":"55","num_nodes":"7","size_leaf_vector":"0"}},{"base_weights":[-0E0,1.5726143E-1,-1.3182727E-1,-6.989551E-2,2.1314864E-1,-2.0622885E-1,5.894538E-2],"categories":[],"categories_nodes":[],"categories_segments":[],"categories_sizes":[],"default_left":[1,1,1,0,0,0,0],"id":8,"left_children":[1,3,5,-1,-1,-1,-1],"loss_changes":[2.2379346E2,8.159921E1,1.0840273E2,0E0,0E0,0E0,0E0],"parents":[2147483647,0,0,1,1,2,2],"right_children":[2,4,6,-1,-1,-1,-1],"split_conditions":[-6.996776E-1,1.69E1,5E-1,-1.39791025E-2,4.262973E-2,-4.124577E-2,1.1789076E-2],"split_indices":[49,48,4,0,0,0,0],"split_type":[0,0,0,0,0,0,0],"sum_hessian":[9.88386E3,4.2124097E3,5.67145E3,4.536947E2,3.7587148E3,4.428143E3,1.2433071E3],"tree_param":{"num_deleted":"0","num_feature":"55","num_nodes":"7","size_leaf_vector":"0"}},{"base_weights":[-0E0,6.630569E-2,-2.4395682E-1,-9.298031E-2,1.3263889E-1,-2.828083E-1,-0E0],"categories":[],"categories_nodes":[],"categories_segments":[],"categories_sizes":[],"default_left":[1,1,1,0,0,0,0],"id":9,"left_children":[1,3,5,-1,-1,-1,-1],"loss_changes":[1.9038766E2,9.722998E1,2.3000809E1,0E0,0E0,0E0,0E0],"parents":[2147483647,0,0,1,1,2,2],"right_children":[2,4,6,-1,-1,-1,-1],"split_conditions":[-3.4373403E-1,4.652192E1,5E-1,-1.8596062E-2,2.6527777E-2,-5.656166E-2,-0E0],"split_indices":[49,2,4,0,0,0,0],"split_type":[0,0,0,0,0,0,0],"sum_hessian":[9.833297E3,7.743246E3,2.0900505E3,1.774276E3,5.96897E3,1.7148824E3,3.7516806E2],"tree_param":{"num_deleted":"0","num_feature":"55","num_nodes":"7","size_leaf_vector":"0"}},{"base_weights":[-0E0,7.24356E-2,-1.8119371E-1,-7.4973926E-3,2.0124818E-1,2.8719297E-2,-2.5492224E-1],"categories":[],"categories_nodes":[],"categories_segments":[],"categories_sizes":[],"default_left":[1,1,1,0,0,0,0],"id":10,"left_children":[1,3,5,-1,-1,-1,-1],"loss_changes":[1.487957E2,9.683884E1,7.7995926E1,0E0,0E0,0E0,0E0],"parents":[2147483647,0,0,1,1,2,2],"right_children":[2,4,6,-1,-1,-1,-1],"split_conditions":[8.154775E-1,-6.395E2,-9.6856487E-1,-1.4994786E-3,4.024964E-2,5.7438593E-3,-5.098445E-2],"split_indices":[12,0,49,0,0,0,0],"split_type":[0,0,0,0,0,0,0],"sum_hessian":[9.791634E3,6.9501294E3,2.8415046E3,4.1003105E3,2.8498186E3,4.653923E2,2.3761125E3],"tree_param":{"num_deleted":"0","num_feature":"55","num_nodes":"7","size_leaf_vector":"0"}},{"base_weights":[-0E0,-7.196757E-2,1.405875E-1,-1.7176297E-1,1.7655378E-2,2.6517168E-1,-0E0],"categories":[],"categories_nodes":[],"categories_segments":[],"categories_sizes":[],"default_left":[1,1,1,0,0,0,0],"id":11,"left_children":[1,3,5,-1,-1,-1,-1],"loss_changes":[1.057345E2,8.249122E1,7.095656E1,0E0,0E0,0E0,0E0],"parents":[2147483647,0,0,1,1,2,2],"right_children":[2,4,6,-1,-1,-1,-1],"split_conditions":[-5.265E2,7.9804985E1,-9.2253137E-1,-3.4352597E-2,3.5310758E-3,5.3034335E-2,-0E0],"split_indices":[0,8,49,0,0,0,0],"split_type":[0,0,0,0,0,0,0],"sum_hessian":[9.759227E3,6.830556E3,2.92867E3,3.5429756E3,3.2875806E3,1.4728601E3,1.4558099E3],"tree_param":{"num_deleted":"0","num_feature":"55","num_nodes":"7","size_leaf_vector":"0"}},{"base_weights":[-0E0,4.2065088E-2,-2.1346286E-1,-1.00961976E-1,9.9022E-2,-2.2622083E-1,-0E0],"categories":[],"categories_nodes":[],"categories_segments":[],"categories_sizes":[],"default_left":[1,1,1,0,0,0,0],"id":12,"left_children":[1,3,5,-1,-1,-1,-1],"loss_changes":[1.1060888E2,7.495155E1,9.7777405E0,0E0,0E0,0E0,0E0],"parents":[2147483647,0,0,1,1,2,2],"right_children":[2,4,6,-1,-1,-1,-1],"split_conditions":[-2.9933605E-1,4.590548E1,2.4650002E1,-2.0192396E-2,1.9804401E-2,-4.524417E-2,-0E0],"split_indices":[49,2,9,0,0,0,0],"split_type":[0,0,0,0,0,0,0],"sum_hessian":[9.703837E3,8.1107964E3,1.5930409E3,1.6999534E3,6.4108433E3,1.5546807E3,3.8360157E1],"tree_param":{"num_deleted":"0","num_feature":"55","num_nodes":"7","size_leaf_vector":"0"}},{"base_weights":[-0E0,4.625899E-2,-1.9489478E-1,-2.0292255E-3,1.8519619E-1,-2.3652634E-1,-0E0],"categories":[],"categories_nodes":[],"categories_segments":[],"categories_sizes":[],"default_left":[1,1,1,0,0,0,0],"id":13,"left_children":[1,3,5,-1,-1,-1,-1],"loss_changes":[1.0215761E2,7.5250565E1,2.8419266E1,0E0,0E0,0E0,0E0],"parents":[2147483647,0,0,1,1,2,2],"right_children":[2,4,6,-1,-1,-1,-1],"split_conditions":[8.8451207E-1,-5.245E2,-3.135E2,-4.058451E-4,3.703924E-2,-4.7305267E-2,-0E0],"split_indices":[12,0,0,0,0,0,0],"split_type":[0,0,0,0,0,0,0],"sum_hessian":[9.671136E3,7.9581484E3,1.7129878E3,5.7371313E3,2.2210168E3,1.5105088E3,2.0247893E2],"tree_param":{"num_deleted":"0","num_feature":"55","num_nodes":"7","size_leaf_vector":"0"}},{"base_weights":[-2.4515663E-3,7.9533145E-2,-9.358272E-2,-6.537057E-2,1.3793181E-1,9.499641E-2,-1.443895E-1],"categories":[],"categories_nodes":[],"categories_segments":[],"categories_sizes":[],"default_left":[1,1,1,0,0,0,0],"id":14,"left_children":[1,3,5,-1,-1,-1,-1],"loss_changes":[8.06954E1,5.4219917E1,6.542685E1,0E0,0E0,0E0,0E0],"parents":[2147483647,0,0,1,1,2,2],"right_children":[2,4,6,-1,-1,-1,-1],"split_conditions":[6.998695E-1,-1.1645E3,-1.1737535E0,-1.3074114E-2,2.7586361E-2,1.8999282E-2,-2.8877899E-2],"split_indices":[12,0,49,0,0,0,0],"split_type":[0,0,0,0,0,0,0],"sum_hessian":[9.614485E3,4.5170796E3,5.097406E3,7.885075E2,3.728572E3,5.718298E2,4.525576E3],"tree_param":{"num_deleted":"0","num_feature":"55","num_nodes":"7","size_leaf_vector":"0"}},{"base_weights":[-2.839862E-3,-6.709034E-2,8.9898124E-2,5.3731058E-2,-1.2900797E-1,1.9371192E-1,-0E0],"categories":[],"categories_nodes":[],"categories_segments":[],"categories_sizes":[],"default_left":[1,1,1,0,0,0,0],"id":15,"left_children":[1,3,5,-1,-1,-1,-1],"loss_changes":[6.0807713E1,6.24554E1,4.442292E1,0E0,0E0,0E0,0E0],"parents":[2147483647,0,0,1,1,2,2],"right_children":[2,4,6,-1,-1,-1,-1],"split_conditions":[-5.545E2,1.0028079E2,-9.5424557E-1,1.0746212E-2,-2.5801593E-2,3.8742386E-2,-0E0],"split_indices":[0,31,49,0,0,0,0],"split_type":[0,0,0,0,0,0,0],"sum_hessian":[9.581941E3,6.379028E3,3.202914E3,1.636583E3,4.742445E3,1.4813462E3,1.7215677E3],"tree_param":{"num_deleted":"0","num_feature":"55","num_nodes":"7","size_leaf_vector":"0"}},{"base_weights":[-0E0,3.390215E-2,-1.6608132E-1,-1.0594698E-1,8.920665E-2,-1.950245E-1,-0E0],"categories":[],"categories_nodes":[],"categories_segments":[],"categories_sizes":[],"default_left":[1,1,1,0,0,0,0],"id":16,"left_children":[1,3,5,-1,-1,-1,-1],"loss_changes":[6.2684147E1,7.004523E1,1.3720264E1,0E0,0E0,0E0,0E0],"parents":[2147483647,0,0,1,1,2,2],"right_children":[2,4,6,-1,-1,-1,-1],"split_conditions":[9.058082E-1,4.590548E1,-3.105E2,-2.1189397E-2,1.784133E-2,-3.9004903E-2,-0E0],"split_indices":[12,2,0,0,0,0,0],"split_type":[0,0,0,0,0,0,0],"sum_hessian":[9.573538E3,8.1619067E3,1.411631E3,1.6708323E3,6.4910747E3,1.2470637E3,1.6456729E2],"tree_param":{"num_deleted":"0","num_feature":"55","num_nodes":"7","size_leaf_vector":"0"}},{"base_weights":[-0E0,-1.13435596E-1,5.180601E-2,-0E0,-1.4233969E-1,-4.1557785E-2,1.00517705E-1],"categories":[],"categories_nodes":[],"categories_segments":[],"categories_sizes":[],"default_left":[1,1,1,0,0,0,0],"id":17,"left_children":[1,3,5,-1,-1,-1,-1],"loss_changes":[6.171746E1,1.9084694E1,4.0979797E1,0E0,0E0,0E0,0E0],"parents":[2147483647,0,0,1,1,2,2],"right_children":[2,4,6,-1,-1,-1,-1],"split_conditions":[1.1316526E0,-1.2190007E0,4.6505478E1,-0E0,-2.8467938E-2,-8.311558E-3,2.0103542E-2],"split_indices":[46,49,2,0,0,0,0],"split_type":[0,0,0,0,0,0,0],"sum_hessian":[9.538137E3,2.78312E3,6.7550166E3,2.5602698E2,2.527093E3,1.6373356E3,5.1176807E3],"tree_param":{"num_deleted":"0","num_feature":"55","num_nodes":"7","size_leaf_vector":"0"}},{"base_weights":[-0E0,-6.315956E-2,6.816429E-2,-1.1654586E-1,3.0577391E-2,-1.6966674E-2,1.0437355E-1],"categories":[],"categories_nodes":[],"categories_segments":[],"categories_sizes":[],"default_left":[1,1,1,0,0,0,0],"id":18,"left_children":[1,3,5,-1,-1,-1,-1],"loss_changes":[4.5280273E1,3.8530014E1,2.4778515E1,0E0,0E0,0E0,0E0],"parents":[2147483647,0,0,1,1,2,2],"right_children":[2,4,6,-1,-1,-1,-1],"split_conditions":[7.987044E1,5E-1,-1.2555E3,-2.3309173E-2,6.1154785E-3,-3.393335E-3,2.087471E-2],"split_indices":[8,4,0,0,0,0,0],"split_type":[0,0,0,0,0,0,0],"sum_hessian":[9.541035E3,5.125463E3,4.415572E3,3.867783E3,1.2576799E3,5.728181E2,3.842754E3],"tree_param":{"num_deleted":"0","num_feature":"55","num_nodes":"7","size_leaf_vector":"0"}},{"base_weights":[-0E0,-7.845797E-2,6.070434E-2,-0E0,-1.5096273E-1,-0E0,1.0627649E-1],"categories":[],"categories_nodes":[],"categories_segments":[],"categories_sizes":[],"default_left":[1,1,1,0,0,0,0],"id":19,"left_children":[1,3,5,-1,-1,-1,-1],"loss_changes":[5.1255913E1,4.053672E1,2.5320787E1,0E0,0E0,0E0,0E0],"parents":[2147483647,0,0,1,1,2,2],"right_children":[2,4,6,-1,-1,-1,-1],"split_conditions":[1.2269711E0,1.0200314E2,1.3787186E2,-0E0,-3.0192545E-2,-0E0,2.1255298E-2],"split_indices":[46,31,24,0,0,0,0],"split_type":[0,0,0,0,0,0,0],"sum_hessian":[9.512153E3,4.5668955E3,4.945258E3,1.919569E3,2.6473264E3,1.4268523E3,3.5184055E3],"tree_param":{"num_deleted":"0","num_feature":"55","num_nodes":"7","size_leaf_vector":"0"}},{"base_weights":[-0E0,2.281985E-2,-1.5535775E-1,-0E0,1.4985462E-1,-1.8409394E-1,-0E0],"categories":[],"categories_nodes":[],"categories_segments":[],"categories_sizes":[],"default_left":[1,1,1,0,0,0,0],"id":20,"left_children":[1,3,5,-1,-1,-1,-1],"loss_changes":[4.983915E1,3.9673504E1,1.2867218E1,0E0,0E0,0E0,0E0],"parents":[2147483647,0,0,1,1,2,2],"right_children":[2,4,6,-1,-1,-1,-1],"split_conditions":[9.058082E-1,-4.375E2,-3.105E2,-0E0,2.9970923E-2,-3.6818787E-2,-0E0],"split_indices":[12,0,0,0,0,0,0],"split_type":[0,0,0,0,0,0,0],"sum_hessian":[9.485715E3,8.106476E3,1.3792386E3,6.640209E3,1.4662671E3,1.218017E3,1.6122179E2],"tree_param":{"num_deleted":"0","num_feature":"55","num_nodes":"7","size_leaf_vector":"0"}},{"base_weights":[-0E0,2.3515908E-2,-1.4246653E-1,-8.222931E-2,5.9504822E-2,-1.6179201E-1,-0E0],"categories":[],"categories_nodes":[],"categories_segments":[],"categories_sizes":[],"default_left":[1,1,1,0,0,0,0],"id":21,"left_children":[1,3,5,-1,-1,-1,-1],"loss_changes":[3.8445843E1,3.3925617E1,7.914055E0,0E0,0E0,0E0,0E0],"parents":[2147483647,0,0,1,1,2,2],"right_children":[2,4,6,-1,-1,-1,-1],"split_conditions":[-2.608021E-1,2.21E1,8.214727E0,-1.6445862E-2,1.1900964E-2,-3.2358404E-2,-0E0],"split_indices":[49,48,16,0,0,0,0],"split_type":[0,0,0,0,0,0,0],"sum_hessian":[9.521341E3,8.368786E3,1.1525547E3,1.2563193E3,7.112467E3,1.0836813E3,6.887335E1],"tree_param":{"num_deleted":"0","num_feature":"55","num_nodes":"7","size_leaf_vector":"0"}},{"base_weights":[-0E0,-3.6867112E-2,9.4932474E-2,-0E0,-1.4422521E-1,-0E0,1.5710197E-1],"categories":[],"categories_nodes":[],"categories_segments":[],"categories_sizes":[],"default_left":[1,1,1,0,0,0,0],"id":22,"left_children":[1,3,5,-1,-1,-1,-1],"loss_changes":[3.5429047E1,4.3405422E1,3.150038E1,0E0,0E0,0E0,0E0],"parents":[2147483647,0,0,1,1,2,2],"right_children":[2,4,6,-1,-1,-1,-1],"split_conditions":[5E-1,3.75E1,8.9830765E1,-0E0,-2.8845042E-2,-0E0,3.1420395E-2],"split_indices":[4,48,20,0,0,0,0],"split_type":[0,0,0,0,0,0,0],"sum_hessian":[9.486401E3,7.219366E3,2.2670354E3,5.1282554E3,2.0911106E3,4.8036502E2,1.7866704E3],"tree_param":{"num_deleted":"0","num_feature":"55","num_nodes":"7","size_leaf_vector":"0"}},{"base_weights":[-1.7668337E-3,3.6490113E-2,-7.692896E-2,-5.1986992E-2,8.7011546E-2,-0E0,-1.1208857E-1],"categories":[],"categories_nodes":[],"categories_segments":[],"categories_sizes":[],"default_left":[1,1,1,0,0,0,0],"id":23,"left_children":[1,3,5,-1,-1,-1,-1],"loss_changes":[3.4054173E1,3.280886E1,2.2476183E1,0E0,0E0,0E0,0E0],"parents":[2147483647,0,0,1,1,2,2],"right_children":[2,4,6,-1,-1,-1,-1],"split_conditions":[2.5635342E1,4.6558907E1,-1.1799412E0,-1.0397399E-2,1.740231E-2,-0E0,-2.2417715E-2],"split_indices":[7,2,49,0,0,0,0],"split_type":[0,0,0,0,0,0,0],"sum_hessian":[9.448523E3,5.550276E3,3.898248E3,1.2926401E3,4.2576357E3,5.375439E2,3.360704E3],"tree_param":{"num_deleted":"0","num_feature":"55","num_nodes":"7","size_leaf_vector":"0"}},{"base_weights":[-0E0,-8.16233E-2,3.199287E-2,-0E0,-1.250125E-1,-6.0954567E-2,6.419857E-2],"categories":[],"categories_nodes":[],"categories_segments":[],"categories_sizes":[],"default_left":[1,1,1,0,0,0,0],"id":24,"left_children":[1,3,5,-1,-1,-1,-1],"loss_changes":[2.7957975E1,1.6261782E1,2.4421885E1,0E0,0E0,0E0,0E0],"parents":[2147483647,0,0,1,1,2,2],"right_children":[2,4,6,-1,-1,-1,-1],"split_conditions":[7.143706E1,-8.169762E-1,2.13E1,-0E0,-2.50025E-2,-1.2190914E-2,1.2839714E-2],"split_indices":[8,49,48,0,0,0,0],"split_type":[0,0,0,0,0,0,0],"sum_hessian":[9.456555E3,2.5600789E3,6.896476E3,7.15003E2,1.8450758E3,8.6079645E2,6.0356797E3],"tree_param":{"num_deleted":"0","num_feature":"55","num_nodes":"7","size_leaf_vector":"0"}},{"base_weights":[-0E0,-5.446383E-2,4.766806E-2,-1.16426736E-1,-0E0,9.877423E-2,-4.0658776E-2],"categories":[],"categories_nodes":[],"categories_segments":[],"categories_sizes":[],"default_left":[1,1,1,0,0,0,0],"id":25,"left_children":[1,3,5,-1,-1,-1,-1],"loss_changes":[2.7744537E1,2.890294E1,2.9076385E1,0E0,0E0,0E0,0E0],"parents":[2147483647,0,0,1,1,2,2],"right_children":[2,4,6,-1,-1,-1,-1],"split_conditions":[2.6069546E1,-6.605E2,8.643706E-1,-2.3285348E-2,-0E0,1.9754848E-2,-8.1317555E-3],"split_indices":[36,0,12,0,0,0,0],"split_type":[0,0,0,0,0,0,0],"sum_hessian":[9.455054E3,5.246014E3,4.2090396E3,2.8896548E3,2.3563594E3,3.3460332E3,8.630066E2],"tree_param":{"num_deleted":"0","num_feature":"55","num_nodes":"7","size_leaf_vector":"0"}},{"base_weights":[-0E0,-8.957715E-2,2.1466913E-2,-0E0,-1.2384986E-1,-4.786553E-2,6.6715755E-2],"categories":[],"categories_nodes":[],"categories_segments":[],"categories_sizes":[],"default_left":[1,1,1,0,0,0,0],"id":26,"left_children":[1,3,5,-1,-1,-1,-1],"loss_changes":[2.261665E1,1.4049683E1,2.8822025E1,0E0,0E0,0E0,0E0],"parents":[2147483647,0,0,1,1,2,2],"right_children":[2,4,6,-1,-1,-1,-1],"split_conditions":[1.0981187E0,-1.1310499E0,4.4502925E3,-0E0,-2.4769973E-2,-9.573106E-3,1.3343151E-2],"split_indices":[46,49,27,0,0,0,0],"split_type":[0,0,0,0,0,0,0],"sum_hessian":[9.432048E3,1.8547145E3,7.5773335E3,2.0695242E2,1.6477621E3,2.1081733E3,5.46916E3],"tree_param":{"num_deleted":"0","num_feature":"55","num_nodes":"7","size_leaf_vector":"0"}},{"base_weights":[-3.6459044E-3,2.629892E-2,-6.77988E-2,-5.191748E-2,7.4866354E-2,-0E0,-9.962701E-2],"categories":[],"categories_nodes":[],"categories_segments":[],"categories_sizes":[],"default_left":[1,1,1,0,0,0,0],"id":27,"left_children":[1,3,5,-1,-1,-1,-1],"loss_changes":[2.4074343E1,2.7229158E1,1.788729E1,0E0,0E0,0E0,0E0],"parents":[2147483647,0,0,1,1,2,2],"right_children":[2,4,6,-1,-1,-1,-1],"split_conditions":[2.5655457E1,4.6982193E1,-1.1737535E0,-1.0383496E-2,1.4973271E-2,-0E0,-1.9925402E-2],"split_indices":[7,2,49,0,0,0,0],"split_type":[0,0,0,0,0,0,0],"sum_hessian":[9.407531E3,5.5521787E3,3.8553523E3,1.3249329E3,4.227246E3,5.3617126E2,3.3191812E3],"tree_param":{"num_deleted":"0","num_feature":"55","num_nodes":"7","size_leaf_vector":"0"}},{"base_weights":[-0E0,3.7621334E-2,-6.517117E-2,7.253971E-2,-4.780145E-2,-9.676341E-2,-0E0],"categories":[],"categories_nodes":[],"categories_segments":[],"categories_sizes":[],"default_left":[1,1,1,0,0,0,0],"id":28,"left_children":[1,3,5,-1,-1,-1,-1],"loss_changes":[2.5820173E1,2.3671041E1,1.5798683E1,0E0,0E0,0E0,0E0],"parents":[2147483647,0,0,1,1,2,2],"right_children":[2,4,6,-1,-1,-1,-1],"split_conditions":[1.0364401E2,-2.9505175E-1,-3.625E2,1.4507942E-2,-9.56029E-3,-1.9352682E-2,-0E0],"split_indices":[31,49,0,0,0,0,0],"split_type":[0,0,0,0,0,0,0],"sum_hessian":[9.429951E3,6.0251787E3,3.4047722E3,5.1614023E3,8.6377673E2,2.9585925E3,4.4617963E2],"tree_param":{"num_deleted":"0","num_feature":"55","num_nodes":"7","size_leaf_vector":"0"}},{"base_weights":[-0E0,1.7054118E-2,-8.0346785E-2,-3.9753485E-2,6.390078E-2,-1.163721E-1,-0E0],"categories":[],"categories_nodes":[],"categories_segments":[],"categories_sizes":[],"default_left":[1,1,1,0,0,0,0],"id":29,"left_children":[1,3,5,-1,-1,-1,-1],"loss_changes":[1.9191336E1,2.4508045E1,1.1967344E1,0E0,0E0,0E0,0E0],"parents":[2147483647,0,0,1,1,2,2],"right_children":[2,4,6,-1,-1,-1,-1],"split_conditions":[3.388934E2,4.4785586E3,-4.405E2,-7.950697E-3,1.2780157E-2,-2.327442E-2,-0E0],"split_indices":[15,27,0,0,0,0,0],"split_type":[0,0,0,0,0,0,0],"sum_hessian":[9.444892E3,7.324594E3,2.1202974E3,2.3798289E3,4.9447656E3,1.632769E3,4.875284E2],"tree_param":{"num_deleted":"0","num_feature":"55","num_nodes":"7","size_leaf_vector":"0"}},{"base_weights":[-0E0,-2.7432699E-2,8.835991E-2,4.614643E-3,-9.962112E-2,1.4044471E-1,-0E0],"categories":[],"categories_nodes":[],"categories_segments":[],"categories_sizes":[],"default_left":[1,1,1,0,0,0,0],"id":30,"left_children":[1,3,5,-1,-1,-1,-1],"loss_changes":[2.1486034E1,2.9333767E1,1.9082876E1,0E0,0E0,0E0,0E0],"parents":[2147483647,0,0,1,1,2,2],"right_children":[2,4,6,-1,-1,-1,-1],"split_conditions":[-3.985E2,2.7465015E1,9.5749855E-1,9.2292856E-4,-1.9924223E-2,2.8088942E-2,-0E0],"split_indices":[0,43,12,0,0,0,0],"split_type":[0,0,0,0,0,0,0],"sum_hessian":[9.408838E3,7.9736167E3,1.4352216E3,4.8868994E3,3.0867173E3,1.233463E3,2.0175856E2],"tree_param":{"num_deleted":"0","num_feature":"55","num_nodes":"7","size_leaf_vector":"0"}},{"base_weights":[-0E0,-1.07685044E-1,1.3961825E-2,-1.5114361E-1,-0E0,8.775192E-2,-6.0107494E-3],"categories":[],"categories_nodes":[],"categories_segments":[],"categories_sizes":[],"default_left":[1,1,1,0,0,0,0],"id":31,"left_children":[1,3,5,-1,-1,-1,-1],"loss_changes":[2.1090788E1,1.41860695E1,2.1304935E1,0E0,0E0,0E0,0E0],"parents":[2147483647,0,0,1,1,2,2],"right_children":[2,4,6,-1,-1,-1,-1],"split_conditions":[-1.2315E3,1.5894444E2,6.1456186E-1,-3.0228723E-2,-0E0,1.7550385E-2,-1.2021499E-3],"split_indices":[0,24,12,0,0,0,0],"split_type":[0,0,0,0,0,0,0],"sum_hessian":[9.402708E3,1.172023E3,8.230685E3,9.697247E2,2.0229831E2,2.4583162E3,5.7723687E3],"tree_param":{"num_deleted":"0","num_feature":"55","num_nodes":"7","size_leaf_vector":"0"}},{"base_weights":[-1.6851918E-3,-4.6910517E-2,2.9150477E-2,1.2383182E-3,-7.695828E-2,-2.0378182E-2,5.92328E-2],"categories":[],"categories_nodes":[],"categories_segments":[],"categories_sizes":[],"default_left":[1,1,1,0,0,0,0],"id":32,"left_children":[1,3,5,-1,-1,-1,-1],"loss_changes":[1.619252E1,1.5574801E1,1.1713486E1,0E0,0E0,0E0,0E0],"parents":[2147483647,0,0,1,1,2,2],"right_children":[2,4,6,-1,-1,-1,-1],"split_conditions":[7.9813805E1,-1.0872269E0,1.91E1,2.4766364E-4,-1.5391655E-2,-4.0756366E-3,1.184656E-2],"split_indices":[8,49,48,0,0,0,0],"split_type":[0,0,0,0,0,0,0],"sum_hessian":[9.347444E3,4.998584E3,4.34886E3,8.261353E2,4.1724487E3,4.481278E2,3.9007322E3],"tree_param":{"num_deleted":"0","num_feature":"55","num_nodes":"7","size_leaf_vector":"0"}},{"base_weights":[-5.3444994E-3,-3.850908E-2,4.0498357E-2,-7.22305E-2,-0E0,7.8751884E-2,-0E0],"categories":[],"categories_nodes":[],"categories_segments":[],"categories_sizes":[],"default_left":[1,1,1,0,0,0,0],"id":33,"left_children":[1,3,5,-1,-1,-1,-1],"loss_changes":[1.5538874E1,1.5391946E1,1.0938003E1,0E0,0E0,0E0,0E0],"parents":[2147483647,0,0,1,1,2,2],"right_children":[2,4,6,-1,-1,-1,-1],"split_conditions":[2.7739048E1,4.5076797E1,8.644302E-1,-1.4446101E-2,-0E0,1.5750377E-2,-0E0],"split_indices":[36,25,12,0,0,0,0],"split_type":[0,0,0,0,0,0,0],"sum_hessian":[9.338481E3,6.730627E3,2.6078547E3,4.5054375E3,2.2251895E3,2.0855552E3,5.2229956E2],"tree_param":{"num_deleted":"0","num_feature":"55","num_nodes":"7","size_leaf_vector":"0"}},{"base_weights":[-0E0,2.2304578E-2,-8.419539E-2,7.841904E-2,-2.5928225E-2,-1.0961666E-1,-0E0],"categories":[],"categories_nodes":[],"categories_segments":[],"categories_sizes":[],"default_left":[1,1,1,0,0,0,0],"id":34,"left_children":[1,3,5,-1,-1,-1,-1],"loss_changes":[1.7235718E1,2.9345938E1,7.116872E0,0E0,0E0,0E0,0E0],"parents":[2147483647,0,0,1,1,2,2],"right_children":[2,4,6,-1,-1,-1,-1],"split_conditions":[9.058082E-1,3.0983727E-2,7.0592127E0,1.5683807E-2,-5.185645E-3,-2.1923332E-2,-0E0],"split_indices":[12,40,21,0,0,0,0],"split_type":[0,0,0,0,0,0,0],"sum_hessian":[9.36044E3,8.02752E3,1.3329205E3,4.5242847E3,3.5032358E3,1.1736444E3,1.5927614E2],"tree_param":{"num_deleted":"0","num_feature":"55","num_nodes":"7","size_leaf_vector":"0"}},{"base_weights":[-0E0,-1.1743704E-1,8.098607E-3,-1.3303061E-1,-0E0,1.487947E-1,-6.609337E-3],"categories":[],"categories_nodes":[],"categories_segments":[],"categories_sizes":[],"default_left":[1,1,1,0,0,0,0],"id":35,"left_children":[1,3,5,-1,-1,-1,-1],"loss_changes":[1.7309803E1,4.043947E0,3.3650303E1,0E0,0E0,0E0,0E0],"parents":[2147483647,0,0,1,1,2,2],"right_children":[2,4,6,-1,-1,-1,-1],"split_conditions":[1.91E1,1.1030001E1,-1.1742322E0,-2.6606122E-2,-0E0,2.975894E-2,-1.3218675E-3],"split_indices":[48,26,49,0,0,0,0],"split_type":[0,0,0,0,0,0,0],"sum_hessian":[9.364238E3,7.115833E2,8.652655E3,6.7270056E2,3.888272E1,1.030986E3,7.621669E3],"tree_param":{"num_deleted":"0","num_feature":"55","num_nodes":"7","size_leaf_vector":"0"}},{"base_weights":[-0E0,-5.8453944E-2,2.4875922E-2,-0E0,-9.231034E-2,-5.4553125E-2,5.2312568E-2],"categories":[],"categories_nodes":[],"categories_segments":[],"categories_sizes":[],"default_left":[1,1,1,0,0,0,0],"id":36,"left_children":[1,3,5,-1,-1,-1,-1],"loss_changes":[1.6802603E1,1.3514564E1,1.5622826E1,0E0,0E0,0E0,0E0],"parents":[2147483647,0,0,1,1,2,2],"right_children":[2,4,6,-1,-1,-1,-1],"split_conditions":[1.1624861E0,1.00004E2,-1.3895E3,-0E0,-1.8462067E-2,-1.0910626E-2,1.0462514E-2],"split_indices":[46,31,0,0,0,0,0],"split_type":[0,0,0,0,0,0,0],"sum_hessian":[9.336091E3,3.2191985E3,6.1168926E3,6.418665E2,2.577332E3,5.078223E2,5.6090703E3],"tree_param":{"num_deleted":"0","num_feature":"55","num_nodes":"7","size_leaf_vector":"0"}},{"base_weights":[-0E0,-2.0289665E-2,5.839088E-2,-0E0,-9.409394E-2,-2.4845276E-2,1.2483411E-1],"categories":[],"categories_nodes":[],"categories_segments":[],"categories_sizes":[],"default_left":[1,1,1,0,0,0,0],"id":37,"left_children":[1,3,5,-1,-1,-1,-1],"loss_changes":[1.2453537E1,1.9337563E1,2.6672928E1,0E0,0E0,0E0,0E0],"parents":[2147483647,0,0,1,1,2,2],"right_children":[2,4,6,-1,-1,-1,-1],"split_conditions":[5E-1,3.75E1,8.983304E1,-0E0,-1.8818788E-2,-4.9690553E-3,2.4966823E-2],"split_indices":[4,48,20,0,0,0,0],"split_type":[0,0,0,0,0,0,0],"sum_hessian":[9.338095E3,7.103562E3,2.2345327E3,5.065888E3,2.0376738E3,4.6277963E2,1.7717532E3],"tree_param":{"num_deleted":"0","num_feature":"55","num_nodes":"7","size_leaf_vector":"0"}},{"base_weights":[-0E0,-3.4310196E-2,3.0028563E-2,-6.376042E-2,-0E0,-2.3296315E-2,6.06806E-2],"categories":[],"categories_nodes":[],"categories_segments":[],"categories_sizes":[],"default_left":[1,1,1,0,0,0,0],"id":38,"left_children":[1,3,5,-1,-1,-1,-1],"loss_changes":[1.0821329E1,1.0831965E1,1.23870325E1,0E0,0E0,0E0,0E0],"parents":[2147483647,0,0,1,1,2,2],"right_children":[2,4,6,-1,-1,-1,-1],"split_conditions":[7.950906E1,5E-1,1.91E1,-1.2752085E-2,-0E0,-4.659263E-3,1.213612E-2],"split_indices":[8,4,48,0,0,0,0],"split_type":[0,0,0,0,0,0,0],"sum_hessian":[9.329523E3,4.970723E3,4.358801E3,3.7485564E3,1.2221667E3,4.43979E2,3.9148215E3],"tree_param":{"num_deleted":"0","num_feature":"55","num_nodes":"7","size_leaf_vector":"0"}},{"base_weights":[-0E0,-8.2690425E-2,1.7486839E-2,-1.3389295E-1,-0E0,1.033685E-1,-8.60329E-3],"categories":[],"categories_nodes":[],"categories_segments":[],"categories_sizes":[],"default_left":[1,1,1,0,0,0,0],"id":39,"left_children":[1,3,5,-1,-1,-1,-1],"loss_changes":[1.3321883E1,8.284851E0,2.951756E1,0E0,0E0,0E0,0E0],"parents":[2147483647,0,0,1,1,2,2],"right_children":[2,4,6,-1,-1,-1,-1],"split_conditions":[2.13E1,5.6086304E1,6.3671273E-1,-2.6778592E-2,-0E0,2.06737E-2,-1.7206579E-3],"split_indices":[48,2,12,0,0,0,0],"split_type":[0,0,0,0,0,0,0],"sum_hessian":[9.302971E3,1.0571755E3,8.245795E3,5.560619E2,5.0111368E2,2.4693245E3,5.7764707E3],"tree_param":{"num_deleted":"0","num_feature":"55","num_nodes":"7","size_leaf_vector":"0"}},{"base_weights":[-0E0,-8.3876915E-2,5.471638E-3,-1.2717646E-1,-0E0,1.1627716E-1,-1.6470118E-3],"categories":[],"categories_nodes":[],"categories_segments":[],"categories_sizes":[],"default_left":[1,1,1,0,0,0,0],"id":40,"left_children":[1,3,5,-1,-1,-1,-1],"loss_changes":[1.1218583E1,7.531749E0,1.8440151E1,0E0,0E0,0E0,0E0],"parents":[2147483647,0,0,1,1,2,2],"right_children":[2,4,6,-1,-1,-1,-1],"split_conditions":[2.13E1,-6.145E2,-1.1812248E0,-2.5435293E-2,-0E0,2.3255432E-2,-3.2940236E-4],"split_indices":[48,1,49,0,0,0,0],"split_type":[0,0,0,0,0,0,0],"sum_hessian":[9.281497E3,1.05748E3,8.224017E3,6.431504E2,4.143296E2,8.8162286E2,7.342394E3],"tree_param":{"num_deleted":"0","num_feature":"55","num_nodes":"7","size_leaf_vector":"0"}},{"base_weights":[-0E0,1.8064506E-2,-5.0434303E-2,-2.5863063E-2,5.572038E-2,-0E0,-8.18568E-2],"categories":[],"categories_nodes":[],"categories_segments":[],"categories_sizes":[],"default_left":[1,1,1,0,0,0,0],"id":41,"left_children":[1,3,5,-1,-1,-1,-1],"loss_changes":[1.1829128E1,1.4431976E1,1.169338E1,0E0,0E0,0E0,0E0],"parents":[2147483647,0,0,1,1,2,2],"right_children":[2,4,6,-1,-1,-1,-1],"split_conditions":[2.8027107E1,4.479583E3,-1.0808249E0,-5.1726126E-3,1.11440765E-2,-0E0,-1.637136E-2],"split_indices":[43,27,49,0,0,0,0],"split_type":[0,0,0,0,0,0,0],"sum_hessian":[9.302827E3,5.984187E3,3.3186406E3,1.6086132E3,4.3755737E3,6.2388934E2,2.6947512E3],"tree_param":{"num_deleted":"0","num_feature":"55","num_nodes":"7","size_leaf_vector":"0"}},{"base_weights":[-0E0,-2.3957167E-2,4.6310294E-2,-6.4906776E-2,5.020036E-3,-7.632424E-3,1.0362802E-1],"categories":[],"categories_nodes":[],"categories_segments":[],"categories_sizes":[],"default_left":[1,1,1,0,0,0,0],"id":42,"left_children":[1,3,5,-1,-1,-1,-1],"loss_changes":[1.0217524E1,1.5152199E1,1.8449057E1,0E0,0E0,0E0,0E0],"parents":[2147483647,0,0,1,1,2,2],"right_children":[2,4,6,-1,-1,-1,-1],"split_conditions":[5E-1,4.4596664E1,9.009651E1,-1.2981355E-2,1.0040072E-3,-1.5264848E-3,2.0725604E-2],"split_indices":[4,25,20,0,0,0,0],"split_type":[0,0,0,0,0,0,0],"sum_hessian":[9.31945E3,7.085175E3,2.234275E3,4.109207E3,2.9759678E3,4.7551672E2,1.7587582E3],"tree_param":{"num_deleted":"0","num_feature":"55","num_nodes":"7","size_leaf_vector":"0"}},{"base_weights":[-0E0,-5.159046E-2,1.3810476E-2,-1.4852217E-1,6.526345E-3,5.657994E-2,-4.0516015E-2],"categories":[],"categories_nodes":[],"categories_segments":[],"categories_sizes":[],"default_left":[1,1,1,0,0,0,0],"id":43,"left_children":[1,3,5,-1,-1,-1,-1],"loss_changes":[8.452223E0,2.9483862E1,2.0537384E1,0E0,0E0,0E0,0E0],"parents":[2147483647,0,0,1,1,2,2],"right_children":[2,4,6,-1,-1,-1,-1],"split_conditions":[4.6505478E1,-6.635E2,3.75E1,-2.9704435E-2,1.305269E-3,1.1315988E-2,-8.103203E-3],"split_indices":[2,0,48,0,0,0,0],"split_type":[0,0,0,0,0,0,0],"sum_hessian":[9.281403E3,2.12714E3,7.154263E3,1.150736E3,9.7640393E2,5.021211E3,2.133052E3],"tree_param":{"num_deleted":"0","num_feature":"55","num_nodes":"7","size_leaf_vector":"0"}},{"base_weights":[-0E0,-8.616944E-2,1.06482105E-2,-1.1713592E-1,-0E0,7.011755E-2,-6.8419296E-3],"categories":[],"categories_nodes":[],"categories_segments":[],"categories_sizes":[],"default_left":[1,1,1,0,0,0,0],"id":44,"left_children":[1,3,5,-1,-1,-1,-1],"loss_changes":[1.0641497E1,6.9296513E0,1.5925278E1,0E0,0E0,0E0,0E0],"parents":[2147483647,0,0,1,1,2,2],"right_children":[2,4,6,-1,-1,-1,-1],"split_conditions":[-1.3895E3,2.85E0,6.369201E-1,-2.3427185E-2,-0E0,1.402351E-2,-1.368386E-3],"split_indices":[0,34,12,0,0,0,0],"split_type":[0,0,0,0,0,0,0],"sum_hessian":[9.292611E3,7.9578107E2,8.49683E3,7.062724E2,8.950869E1,2.8884949E3,5.6083354E3],"tree_param":{"num_deleted":"0","num_feature":"55","num_nodes":"7","size_leaf_vector":"0"}},{"base_weights":[-2.5342815E-3,-6.832555E-2,2.2491312E-3,-1.11375526E-1,-0E0,-4.182822E-2,4.0266786E-2],"categories":[],"categories_nodes":[],"categories_segments":[],"categories_sizes":[],"default_left":[1,1,1,0,0,0,0],"id":45,"left_children":[1,3,5,-1,-1,-1,-1],"loss_changes":[9.755543E0,7.035018E0,1.4366905E1,0E0,0E0,0E0,0E0],"parents":[2147483647,0,0,1,1,2,2],"right_children":[2,4,6,-1,-1,-1,-1],"split_conditions":[4.361096E1,-6.595E2,4.470622E3,-2.2275105E-2,-0E0,-8.365644E-3,8.053358E-3],"split_indices":[2,0,27,0,0,0,0],"split_type":[0,0,0,0,0,0,0],"sum_hessian":[9.258492E3,1.5942844E3,7.6642075E3,8.553086E2,7.389758E2,2.3079348E3,5.356273E3],"tree_param":{"num_deleted":"0","num_feature":"55","num_nodes":"7","size_leaf_vector":"0"}},{"base_weights":[-0E0,-7.818809E-2,6.459497E-3,-9.693084E-2,-0E0,3.6771033E-2,-3.8457707E-2],"categories":[],"categories_nodes":[],"categories_segments":[],"categories_sizes":[],"default_left":[1,1,1,0,0,0,0],"id":46,"left_children":[1,3,5,-1,-1,-1,-1],"loss_changes":[8.590722E0,3.3878021E0,1.2709246E1,0E0,0E0,0E0,0E0],"parents":[2147483647,0,0,1,1,2,2],"right_children":[2,4,6,-1,-1,-1,-1],"split_conditions":[6.3984E1,2.9494604E1,3.3523755E2,-1.9386169E-2,-0E0,7.354207E-3,-7.691541E-3],"split_indices":[8,36,15,0,0,0,0],"split_type":[0,0,0,0,0,0,0],"sum_hessian":[9.283452E3,8.442209E2,8.439231E3,7.35211E2,1.0900986E2,6.4222764E3,2.0169551E3],"tree_param":{"num_deleted":"0","num_feature":"55","num_nodes":"7","size_leaf_vector":"0"}},{"base_weights":[-2.998058E-3,-3.436893E-2,3.0373842E-2,-5.8767363E-2,1.6737144E-2,7.326457E-2,-0E0],"categories":[],"categories_nodes":[],"categories_segments":[],"categories_sizes":[],"default_left":[1,1,1,0,0,0,0],"id":47,"left_children":[1,3,5,-1,-1,-1,-1],"loss_changes":[1.11310215E1,1.3181173E1,1.1111544E1,0E0,0E0,0E0,0E0],"parents":[2147483647,0,0,1,1,2,2],"right_children":[2,4,6,-1,-1,-1,-1],"split_conditions":[6.201998E0,-3.695E2,3.3196002E2,-1.17534725E-2,3.347429E-3,1.4652914E-2,-0E0],"split_indices":[16,0,15,0,0,0,0],"split_type":[0,0,0,0,0,0,0],"sum_hessian":[9.252126E3,6.305916E3,2.9462095E3,5.5419204E3,7.639957E2,2.162392E3,7.838172E2],"tree_param":{"num_deleted":"0","num_feature":"55","num_nodes":"7","size_leaf_vector":"0"}},{"base_weights":[-0E0,2.2460772E-2,-3.900907E-2,-6.589575E-3,6.411948E-2,-0E0,-7.858668E-2],"categories":[],"categories_nodes":[],"categories_segments":[],"categories_sizes":[],"default_left":[1,1,1,0,0,0,0],"id":48,"left_children":[1,3,5,-1,-1,-1,-1],"loss_changes":[9.524384E0,1.3187794E1,1.004118E1,0E0,0E0,0E0,0E0],"parents":[2147483647,0,0,1,1,2,2],"right_children":[2,4,6,-1,-1,-1,-1],"split_conditions":[2.5655983E1,5.28018E0,2.897466E-2,-1.317915E-3,1.28238965E-2,-0E0,-1.5717337E-2],"split_indices":[7,23,40,0,0,0,0],"split_type":[0,0,0,0,0,0,0],"sum_hessian":[9.249054E3,5.4688857E3,3.7801672E3,2.055766E3,3.4131199E3,1.5996783E3,2.180489E3],"tree_param":{"num_deleted":"0","num_feature":"55","num_nodes":"7","size_leaf_vector":"0"}},{"base_weights":[-0E0,-4.4573344E-2,2.5917323E-2,-7.507387E-2,-0E0,-1.1228096E-3,7.182032E-2],"categories":[],"categories_nodes":[],"categories_segments":[],"categories_sizes":[],"default_left":[1,1,1,0,0,0,0],"id":49,"left_children":[1,3,5,-1,-1,-1,-1],"loss_changes":[1.3390829E1,1.1322954E1,1.3733416E1,0E0,0E0,0E0,0E0],"parents":[2147483647,0,0,1,1,2,2],"right_children":[2,4,6,-1,-1,-1,-1],"split_conditions":[1.2269711E0,6.491885E0,1.4071957E2,-1.5014774E-2,-0E0,-2.2456193E-4,1.4364064E-2],"split_indices":[46,16,24,0,0,0,0],"split_type":[0,0,0,0,0,0,0],"sum_hessian":[9.272013E3,4.4358687E3,4.8361436E3,3.248959E3,1.1869098E3,1.9793992E3,2.8567444E3],"tree_param":{"num_deleted":"0","num_feature":"55","num_nodes":"7","size_leaf_vector":"0"}},{"base_weights":[-0E0,-3.1607177E-2,1.8607283E-2,-5.628549E-2,-0E0,5.675897E-2,-9.240471E-3],"categories":[],"categories_nodes":[],"categories_segments":[],"categories_sizes":[],"default_left":[1,1,1,0,0,0,0],"id":50,"left_children":[1,3,5,-1,-1,-1,-1],"loss_changes":[6.9058957E0,9.064526E0,1.036693E1,0E0,0E0,0E0,0E0],"parents":[2147483647,0,0,1,1,2,2],"right_children":[2,4,6,-1,-1,-1,-1],"split_conditions":[4.7804077E3,-3.985E2,3.4001672E2,-1.1257098E-2,-0E0,1.1351794E-2,-1.8480942E-3],"split_indices":[27,0,15,0,0,0,0],"split_type":[0,0,0,0,0,0,0],"sum_hessian":[9.204848E3,4.6665913E3,4.538257E3,3.9904568E3,6.7613464E2,3.2110066E3,1.3272501E3],"tree_param":{"num_deleted":"0","num_feature":"55","num_nodes":"7","size_leaf_vector":"0"}},{"base_weights":[-0E0,-2.2145115E-2,3.5672847E-2,-5.0363433E-2,6.321415E-3,6.581798E-2,-0E0],"categories":[],"categories_nodes":[],"categories_segments":[],"categories_sizes":[],"default_left":[1,1,1,0,0,0,0],"id":51,"left_children":[1,3,5,-1,-1,-1,-1],"loss_changes":[7.5081406E0,1.0277061E1,7.3947196E0,0E0,0E0,0E0,0E0],"parents":[2147483647,0,0,1,1,2,2],"right_children":[2,4,6,-1,-1,-1,-1],"split_conditions":[2.7501022E1,4.102143E-1,8.644302E-1,-1.0072687E-2,1.264283E-3,1.3163596E-2,-0E0],"split_indices":[36,34,12,0,0,0,0],"split_type":[0,0,0,0,0,0,0],"sum_hessian":[9.271886E3,6.6129546E3,2.6589316E3,4.8919497E3,1.721005E3,2.1349504E3,5.239811E2],"tree_param":{"num_deleted":"0","num_feature":"55","num_nodes":"7","size_leaf_vector":"0"}},{"base_weights":[-0E0,-7.192465E-2,1.3808036E-2,-0E0,-9.058722E-2,3.8317945E-2,-6.586633E-2],"categories":[],"categories_nodes":[],"categories_segments":[],"categories_sizes":[],"default_left":[1,1,1,0,0,0,0],"id":52,"left_children":[1,3,5,-1,-1,-1,-1],"loss_changes":[7.993973E0,3.0344834E0,1.612682E1,0E0,0E0,0E0,0E0],"parents":[2147483647,0,0,1,1,2,2],"right_children":[2,4,6,-1,-1,-1,-1],"split_conditions":[1.91E1,1.883339E2,9.566779E-1,-0E0,-1.8117445E-2,7.663589E-3,-1.3173266E-2],"split_indices":[48,15,12,0,0,0,0],"split_type":[0,0,0,0,0,0,0],"sum_hessian":[9.235487E3,7.127374E2,8.52275E3,7.8431885E1,6.3430554E2,7.6760425E3,8.467076E2],"tree_param":{"num_deleted":"0","num_feature":"55","num_nodes":"7","size_leaf_vector":"0"}},{"base_weights":[-0E0,-6.4268716E-2,7.3393253E-3,-1.0111415E-1,-0E0,7.5423315E-2,-0E0],"categories":[],"categories_nodes":[],"categories_segments":[],"categories_sizes":[],"default_left":[1,1,1,0,0,0,0],"id":53,"left_children":[1,3,5,-1,-1,-1,-1],"loss_changes":[7.3598394E0,6.361668E0,1.1406158E1,0E0,0E0,0E0,0E0],"parents":[2147483647,0,0,1,1,2,2],"right_children":[2,4,6,-1,-1,-1,-1],"split_conditions":[2.18E1,3.5813433E-1,5.7930756E-1,-2.022283E-2,-0E0,1.5084663E-2,-0E0],"split_indices":[48,34,12,0,0,0,0],"split_type":[0,0,0,0,0,0,0],"sum_hessian":[9.221007E3,1.1703317E3,8.0506753E3,7.970294E2,3.7330222E2,1.5860294E3,6.464646E3],"tree_param":{"num_deleted":"0","num_feature":"55","num_nodes":"7","size_leaf_vector":"0"}},{"base_weights":[-5.850806E-4,1.868944E-2,-3.599545E-2,4.975339E-2,-1.7992064E-2,1.8124158E-2,-7.634038E-2],"categories":[],"categories_nodes":[],"categories_segments":[],"categories_sizes":[],"default_left":[1,1,1,0,0,0,0],"id":54,"left_children":[1,3,5,-1,-1,-1,-1],"loss_changes":[8.684225E0,9.06873E0,1.8340784E1,0E0,0E0,0E0,0E0],"parents":[2147483647,0,0,1,1,2,2],"right_children":[2,4,6,-1,-1,-1,-1],"split_conditions":[1.0200314E2,5.9393384E-2,5E-1,9.950678E-3,-3.598413E-3,3.6248316E-3,-1.5268075E-2],"split_indices":[31,40,6,0,0,0,0],"split_type":[0,0,0,0,0,0,0],"sum_hessian":[9.195358E3,4.2785405E3,4.9168184E3,3.6962979E3,5.8224274E2,1.1589435E3,3.7578748E3],"tree_param":{"num_deleted":"0","num_feature":"55","num_nodes":"7","size_leaf_vector":"0"}},{"base_weights":[-1.4454742E-3,-6.177019E-2,3.516468E-3,-9.697786E-2,-0E0,-5.754621E-2,2.6395047E-2],"categories":[],"categories_nodes":[],"categories_segments":[],"categories_sizes":[],"default_left":[1,1,1,0,0,0,0],"id":55,"left_children":[1,3,5,-1,-1,-1,-1],"loss_changes":[8.852938E0,8.259624E0,8.753408E0,0E0,0E0,0E0,0E0],"parents":[2147483647,0,0,1,1,2,2],"right_children":[2,4,6,-1,-1,-1,-1],"split_conditions":[1.0981187E0,6.5470304E0,1.91E1,-1.9395573E-2,-0E0,-1.15092425E-2,5.2790097E-3],"split_indices":[46,16,48,0,0,0,0],"split_type":[0,0,0,0,0,0,0],"sum_hessian":[9.251717E3,1.7997913E3,7.4519253E3,1.3112854E3,4.8850583E2,6.3324817E2,6.818677E3],"tree_param":{"num_deleted":"0","num_feature":"55","num_nodes":"7","size_leaf_vector":"0"}},{"base_weights":[-1.9572175E-3,1.3714657E-2,-3.9003283E-2,-1.781199E-2,5.1555097E-2,-6.8849556E-2,-0E0],"categories":[],"categories_nodes":[],"categories_segments":[],"categories_sizes":[],"default_left":[1,1,1,0,0,0,0],"id":56,"left_children":[1,3,5,-1,-1,-1,-1],"loss_changes":[8.423243E0,1.0136859E1,1.1445404E1,0E0,0E0,0E0,0E0],"parents":[2147483647,0,0,1,1,2,2],"right_children":[2,4,6,-1,-1,-1,-1],"split_conditions":[2.8126173E1,7.092647E1,5.7943687E0,-3.562398E-3,1.031102E-2,-1.3769912E-2,-0E0],"split_indices":[42,8,23,0,0,0,0],"split_type":[0,0,0,0,0,0,0],"sum_hessian":[9.191876E3,4.783733E3,4.408143E3,1.3123339E3,3.471399E3,3.489642E3,9.185009E2],"tree_param":{"num_deleted":"0","num_feature":"55","num_nodes":"7","size_leaf_vector":"0"}},{"base_weights":[-6.1330636E-4,1.2949127E-2,-4.776633E-2,-1.5129625E-2,3.938054E-2,-8.139722E-2,-0E0],"categories":[],"categories_nodes":[],"categories_segments":[],"categories_sizes":[],"default_left":[1,1,1,0,0,0,0],"id":57,"left_children":[1,3,5,-1,-1,-1,-1],"loss_changes":[1.0005217E1,7.3933578E0,1.3500782E1,0E0,0E0,0E0,0E0],"parents":[2147483647,0,0,1,1,2,2],"right_children":[2,4,6,-1,-1,-1,-1],"split_conditions":[2.7888756E1,2.45E1,-3.915E2,-3.025925E-3,7.876108E-3,-1.6279444E-2,-0E0],"split_indices":[43,48,0,0,0,0,0],"split_type":[0,0,0,0,0,0,0],"sum_hessian":[9.217179E3,5.79292E3,3.4242585E3,1.0780732E3,4.7148467E3,2.8890923E3,5.351662E2],"tree_param":{"num_deleted":"0","num_feature":"55","num_nodes":"7","size_leaf_vector":"0"}},{"base_weights":[-0E0,-2.3576066E-2,3.1481158E-2,-0E0,-7.6155804E-2,-2.9502995E-2,7.007698E-2],"categories":[],"categories_nodes":[],"categories_segments":[],"categories_sizes":[],"default_left":[1,1,1,0,0,0,0],"id":58,"left_children":[1,3,5,-1,-1,-1,-1],"loss_changes":[7.8563724E0,1.1620556E1,1.6823807E1,0E0,0E0,0E0,0E0],"parents":[2147483647,0,0,1,1,2,2],"right_children":[2,4,6,-1,-1,-1,-1],"split_conditions":[1.5E0,3.68E1,-1.2315E3,-0E0,-1.5231161E-2,-5.900599E-3,1.4015396E-2],"split_indices":[50,48,0,0,0,0,0],"split_type":[0,0,0,0,0,0,0],"sum_hessian":[9.23129E3,4.746584E3,4.4847056E3,2.7401177E3,2.0064664E3,7.796476E2,3.7050579E3],"tree_param":{"num_deleted":"0","num_feature":"55","num_nodes":"7","size_leaf_vector":"0"}},{"base_weights":[-0E0,-2.082909E-2,3.6317147E-2,-5.339375E-2,8.367236E-3,7.233438E-2,-0E0],"categories":[],"categories_nodes":[],"categories_segments":[],"categories_sizes":[],"default_left":[1,1,1,0,0,0,0],"id":59,"left_children":[1,3,5,-1,-1,-1,-1],"loss_changes":[6.695822E0,1.201775E1,9.025797E0,0E0,0E0,0E0,0E0],"parents":[2147483647,0,0,1,1,2,2],"right_children":[2,4,6,-1,-1,-1,-1],"split_conditions":[1.5415851E2,-5.545E2,4.23E1,-1.067875E-2,1.6734472E-3,1.4466876E-2,-0E0],"split_indices":[24,0,48,0,0,0,0],"split_type":[0,0,0,0,0,0,0],"sum_hessian":[9.223238E3,7.1692896E3,2.0539492E3,4.812394E3,2.3568955E3,1.8688204E3,1.8512875E2],"tree_param":{"num_deleted":"0","num_feature":"55","num_nodes":"7","size_leaf_vector":"0"}},{"base_weights":[-0E0,8.521906E-3,-7.7320166E-2,-8.402089E-3,4.562741E-2,-9.83878E-2,-0E0],"categories":[],"categories_nodes":[],"categories_segments":[],"categories_sizes":[],"default_left":[1,1,1,0,0,0,0],"id":60,"left_children":[1,3,5,-1,-1,-1,-1],"loss_changes":[9.319809E0,9.420338E0,4.764617E0,0E0,0E0,0E0,0E0],"parents":[2147483647,0,0,1,1,2,2],"right_children":[2,4,6,-1,-1,-1,-1],"split_conditions":[-2.4701753E-1,7.43965E1,8.214727E0,-1.6804178E-3,9.125482E-3,-1.967756E-2,-0E0],"split_indices":[49,35,16,0,0,0,0],"split_type":[0,0,0,0,0,0,0],"sum_hessian":[9.220484E3,8.268083E3,9.5240094E2,4.093007E3,4.175076E3,8.8919855E2,6.3202423E1],"tree_param":{"num_deleted":"0","num_feature":"55","num_nodes":"7","size_leaf_vector":"0"}},{"base_weights":[-0E0,2.5772257E-2,-2.4137322E-2,-0E0,5.262498E-2,-5.6336567E-2,-0E0],"categories":[],"categories_nodes":[],"categories_segments":[],"categories_sizes":[],"default_left":[1,1,1,0,0,0,0],"id":61,"left_children":[1,3,5,-1,-1,-1,-1],"loss_changes":[6.244226E0,7.152816E0,8.170303E0,0E0,0E0,0E0,0E0],"parents":[2147483647,0,0,1,1,2,2],"right_children":[2,4,6,-1,-1,-1,-1],"split_conditions":[2.2299667E1,3.8649017E1,4.4554565E1,-0E0,1.0524997E-2,-1.1267314E-2,-0E0],"split_indices":[42,17,25,0,0,0,0],"split_type":[0,0,0,0,0,0,0],"sum_hessian":[9.198942E3,3.203697E3,5.995245E3,2.3259E2,2.971107E3,3.2666099E3,2.7286353E3],"tree_param":{"num_deleted":"0","num_feature":"55","num_nodes":"7","size_leaf_vector":"0"}},{"base_weights":[-0E0,-3.9012536E-2,1.3362298E-2,-0E0,-8.028975E-2,4.751451E-2,-1.26519855E-2],"categories":[],"categories_nodes":[],"categories_segments":[],"categories_sizes":[],"default_left":[1,1,1,0,0,0,0],"id":62,"left_children":[1,3,5,-1,-1,-1,-1],"loss_changes":[5.414293E0,5.765095E0,1.0487063E1,0E0,0E0,0E0,0E0],"parents":[2147483647,0,0,1,1,2,2],"right_children":[2,4,6,-1,-1,-1,-1],"split_conditions":[5.147697E0,2.3213474E1,3.1437823E2,-0E0,-1.6057951E-2,9.502902E-3,-2.5303971E-3],"split_indices":[21,42,15,0,0,0,0],"split_type":[0,0,0,0,0,0,0],"sum_hessian":[9.214198E3,2.1726707E3,7.0415273E3,1.1473584E3,1.0253123E3,4.527938E3,2.513589E3],"tree_param":{"num_deleted":"0","num_feature":"55","num_nodes":"7","size_leaf_vector":"0"}},{"base_weights":[-0E0,-3.871801E-2,1.1608944E-2,-9.932047E-2,-0E0,7.446617E-2,-0E0],"categories":[],"categories_nodes":[],"categories_segments":[],"categories_sizes":[],"default_left":[1,1,1,0,0,0,0],"id":63,"left_children":[1,3,5,-1,-1,-1,-1],"loss_changes":[4.4898214E0,1.0504585E1,1.3045332E1,0E0,0E0,0E0,0E0],"parents":[2147483647,0,0,1,1,2,2],"right_children":[2,4,6,-1,-1,-1,-1],"split_conditions":[2.51E1,5.517945E1,5.6603172E1,-1.9864095E-2,-0E0,1.4893234E-2,-0E0],"split_indices":[48,2,28,0,0,0,0],"split_type":[0,0,0,0,0,0,0],"sum_hessian":[9.195602E3,1.783769E3,7.4118325E3,9.1193866E2,8.718304E2,2.0448254E3,5.367007E3],"tree_param":{"num_deleted":"0","num_feature":"55","num_nodes":"7","size_leaf_vector":"0"}},{"base_weights":[-1.9253037E-3,-2.7793746E-2,3.3572216E-2,-4.935196E-2,-0E0,-0E0,7.026612E-2],"categories":[],"categories_nodes":[],"categories_segments":[],"categories_sizes":[],"default_left":[1,1,1,0,0,0,0],"id":64,"left_children":[1,3,5,-1,-1,-1,-1],"loss_changes":[8.777045E0,9.177782E0,6.287733E0,0E0,0E0,0E0,0E0],"parents":[2147483647,0,0,1,1,2,2],"right_children":[2,4,6,-1,-1,-1,-1],"split_conditions":[2.4514785E0,-4.405E2,6.780322E1,-9.870392E-3,-0E0,-0E0,1.4053225E-2],"split_indices":[37,0,35,0,0,0,0],"split_type":[0,0,0,0,0,0,0],"sum_hessian":[9.179491E3,7.0022705E3,2.1772207E3,5.647614E3,1.3546565E3,7.9255524E2,1.3846656E3],"tree_param":{"num_deleted":"0","num_feature":"55","num_nodes":"7","size_leaf_vector":"0"}},{"base_weights":[-0E0,-1.2050023E-2,4.8029065E-2,-0E0,-6.1032176E-2,7.151828E-2,-0E0],"categories":[],"categories_nodes":[],"categories_segments":[],"categories_sizes":[],"default_left":[1,1,1,0,0,0,0],"id":65,"left_children":[1,3,5,-1,-1,-1,-1],"loss_changes":[4.528504E0,8.693005E0,3.7070527E0,0E0,0E0,0E0,0E0],"parents":[2147483647,0,0,1,1,2,2],"right_children":[2,4,6,-1,-1,-1,-1],"split_conditions":[-3.445E2,8.1552124E-1,3.9246045E2,-0E0,-1.2206435E-2,1.4303656E-2,-0E0],"split_indices":[0,12,15,0,0,0,0],"split_type":[0,0,0,0,0,0,0],"sum_hessian":[9.193894E3,8.283671E3,9.102222E2,6.1075327E3,2.1761384E3,8.6076733E2,4.945493E1],"tree_param":{"num_deleted":"0","num_feature":"55","num_nodes":"7","size_leaf_vector":"0"}},{"base_weights":[-0E0,-1.2312553E-2,4.1205652E-2,-4.013323E-2,2.1611411E-2,-0E0,7.057064E-2],"categories":[],"categories_nodes":[],"categories_segments":[],"categories_sizes":[],"default_left":[1,1,1,0,0,0,0],"id":66,"left_children":[1,3,5,-1,-1,-1,-1],"loss_changes":[5.2136974E0,9.639076E0,6.145398E0,0E0,0E0,0E0,0E0],"parents":[2147483647,0,0,1,1,2,2],"right_children":[2,4,6,-1,-1,-1,-1],"split_conditions":[5E-1,4.609839E1,2.13E1,-8.026646E-3,4.3222825E-3,-0E0,1.4114128E-2],"split_indices":[53,25,48,0,0,0,0],"split_type":[0,0,0,0,0,0,0],"sum_hessian":[9.166209E3,7.2911875E3,1.875021E3,5.5752427E3,1.7159452E3,3.3134225E2,1.5436787E3],"tree_param":{"num_deleted":"0","num_feature":"55","num_nodes":"7","size_leaf_vector":"0"}},{"base_weights":[-0E0,1.6254023E-2,-3.5446234E-2,5.4375265E-2,-4.7256004E-2,-6.471729E-2,-0E0],"categories":[],"categories_nodes":[],"categories_segments":[],"categories_sizes":[],"default_left":[1,1,1,0,0,0,0],"id":67,"left_children":[1,3,5,-1,-1,-1,-1],"loss_changes":[6.9440904E0,1.6375814E1,8.549656E0,0E0,0E0,0E0,0E0],"parents":[2147483647,0,0,1,1,2,2],"right_children":[2,4,6,-1,-1,-1,-1],"split_conditions":[3.242924E-2,8.8861823E-1,3.3577776E-1,1.0875053E-2,-9.451201E-3,-1.2943459E-2,-0E0],"split_indices":[40,12,34,0,0,0,0],"split_type":[0,0,0,0,0,0,0],"sum_hessian":[9.217112E3,5.439127E3,3.7779856E3,4.427835E3,1.0112921E3,2.8246372E3,9.533484E2],"tree_param":{"num_deleted":"0","num_feature":"55","num_nodes":"7","size_leaf_vector":"0"}},{"base_weights":[-0E0,-6.544105E-2,5.0473297E-3,-8.049299E-2,-0E0,-3.6428757E-2,2.4564762E-2],"categories":[],"categories_nodes":[],"categories_segments":[],"categories_sizes":[],"default_left":[1,1,1,0,0,0,0],"id":68,"left_children":[1,3,5,-1,-1,-1,-1],"loss_changes":[4.065366E0,1.3795509E0,6.754333E0,0E0,0E0,0E0,0E0],"parents":[2147483647,0,0,1,1,2,2],"right_children":[2,4,6,-1,-1,-1,-1],"split_conditions":[3.4675343E1,5.364295E0,8.1752525E1,-1.6098598E-2,-0E0,-7.2857514E-3,4.9129524E-3],"split_indices":[2,23,20,0,0,0,0],"split_type":[0,0,0,0,0,0,0],"sum_hessian":[9.150852E3,3.9422543E2,8.756626E3,3.039824E2,9.024301E1,1.02389874E3,7.732727E3],"tree_param":{"num_deleted":"0","num_feature":"55","num_nodes":"7","size_leaf_vector":"0"}},{"base_weights":[-0E0,-3.6538374E-2,1.5065729E-2,-7.127812E-2,-0E0,-0E0,8.251194E-2],"categories":[],"categories_nodes":[],"categories_segments":[],"categories_sizes":[],"default_left":[1,1,1,0,0,0,0],"id":69,"left_children":[1,3,5,-1,-1,-1,-1],"loss_changes":[4.6214857E0,5.1829424E0,1.2670827E1,0E0,0E0,0E0,0E0],"parents":[2147483647,0,0,1,1,2,2],"right_children":[2,4,6,-1,-1,-1,-1],"split_conditions":[4.3653423E1,4.758005E-1,3.8970965E-1,-1.4255623E-2,-0E0,-0E0,1.6502388E-2],"split_indices":[2,39,34,0,0,0,0],"split_type":[0,0,0,0,0,0,0],"sum_hessian":[9.176772E3,1.5861381E3,7.5906343E3,1.0683372E3,5.1780096E2,5.959797E3,1.6308372E3],"tree_param":{"num_deleted":"0","num_feature":"55","num_nodes":"7","size_leaf_vector":"0"}},{"base_weights":[-0E0,9.936622E-3,-2.536456E-2,-1.6171163E-2,4.0105894E-2,-0E0,-4.802234E-2],"categories":[],"categories_nodes":[],"categories_segments":[],"categories_sizes":[],"default_left":[1,1,1,0,0,0,0],"id":70,"left_children":[1,3,5,-1,-1,-1,-1],"loss_changes":[3.3401284E0,7.3765697E0,5.7073765E0,0E0,0E0,0E0,0E0],"parents":[2147483647,0,0,1,1,2,2],"right_children":[2,4,6,-1,-1,-1,-1],"split_conditions":[2.5655457E1,4.6565754E1,1.3104999E0,-3.2342325E-3,8.021179E-3,-0E0,-9.604468E-3],"split_indices":[7,2,38,0,0,0,0],"split_type":[0,0,0,0,0,0,0],"sum_hessian":[9.198753E3,5.41481E3,3.7839424E3,1.2502418E3,4.1645684E3,6.139666E2,3.1699758E3],"tree_param":{"num_deleted":"0","num_feature":"55","num_nodes":"7","size_leaf_vector":"0"}},{"base_weights":[-0E0,-3.749783E-2,1.4129608E-2,-7.808039E-2,-0E0,4.444102E-2,-1.9647978E-2],"categories":[],"categories_nodes":[],"categories_segments":[],"categories_sizes":[],"default_left":[1,1,1,0,0,0,0],"id":71,"left_children":[1,3,5,-1,-1,-1,-1],"loss_changes":[4.9103136E0,9.244507E0,1.0926987E1,0E0,0E0,0E0,0E0],"parents":[2147483647,0,0,1,1,2,2],"right_children":[2,4,6,-1,-1,-1,-1],"split_conditions":[4.318255E3,6.377262E-1,3.3524365E2,-1.5616079E-2,-0E0,8.888204E-3,-3.929596E-3],"split_indices":[27,34,15,0,0,0,0],"split_type":[0,0,0,0,0,0,0],"sum_hessian":[9.205717E3,1.8812056E3,7.324511E3,1.5655444E3,3.1566113E2,5.3374624E3,1.987049E3],"tree_param":{"num_deleted":"0","num_feature":"55","num_nodes":"7","size_leaf_vector":"0"}},{"base_weights":[-0E0,-3.6766537E-2,8.030249E-3,-6.8863764E-2,-0E0,-9.494233E-3,4.6196338E-2],"categories":[],"categories_nodes":[],"categories_segments":[],"categories_sizes":[],"default_left":[1,1,1,0,0,0,0],"id":72,"left_children":[1,3,5,-1,-1,-1,-1],"loss_changes":[3.707279E0,6.5791197E0,9.084697E0,0E0,0E0,0E0,0E0],"parents":[2147483647,0,0,1,1,2,2],"right_children":[2,4,6,-1,-1,-1,-1],"split_conditions":[4.318255E3,6.402143E-1,2.5767712E1,-1.3772753E-2,-0E0,-1.8988466E-3,9.239268E-3],"split_indices":[27,34,36,0,0,0,0],"split_type":[0,0,0,0,0,0,0],"sum_hessian":[9.139431E3,1.8719838E3,7.2674473E3,1.5634891E3,3.0849463E2,3.4423416E3,3.825106E3],"tree_param":{"num_deleted":"0","num_feature":"55","num_nodes":"7","size_leaf_vector":"0"}},{"base_weights":[-0E0,-1.6822815E-2,2.037178E-2,-4.220457E-2,1.1907684E-2,5.444382E-2,-0E0],"categories":[],"categories_nodes":[],"categories_segments":[],"categories_sizes":[],"default_left":[1,1,1,0,0,0,0],"id":73,"left_children":[1,3,5,-1,-1,-1,-1],"loss_changes":[3.31368E0,8.248838E0,6.4765525E0,0E0,0E0,0E0,0E0],"parents":[2147483647,0,0,1,1,2,2],"right_children":[2,4,6,-1,-1,-1,-1],"split_conditions":[5.004125E0,5E-1,2.7876661E1,-8.440915E-3,2.3815369E-3,1.0888765E-2,-0E0],"split_indices":[18,53,7,0,0,0,0],"split_type":[0,0,0,0,0,0,0],"sum_hessian":[9.15144E3,6.312482E3,2.8389585E3,5.075074E3,1.2374077E3,2.1524653E3,6.864931E2],"tree_param":{"num_deleted":"0","num_feature":"55","num_nodes":"7","size_leaf_vector":"0"}},{"base_weights":[-0E0,-1.8720381E-2,2.3866316E-2,-0E0,-4.854539E-2,5.8226064E-2,-0E0],"categories":[],"categories_nodes":[],"categories_segments":[],"categories_sizes":[],"default_left":[1,1,1,0,0,0,0],"id":74,"left_children":[1,3,5,-1,-1,-1,-1],"loss_changes":[4.326249E0,7.9165297E0,7.1132812E0,0E0,0E0,0E0,0E0],"parents":[2147483647,0,0,1,1,2,2],"right_children":[2,4,6,-1,-1,-1,-1],"split_conditions":[1.9893105E1,2.2893362E2,2.7521265E1,-0E0,-9.709078E-3,1.1645213E-2,-0E0],"split_indices":[9,33,7,0,0,0,0],"split_type":[0,0,0,0,0,0,0],"sum_hessian":[9.192335E3,6.2502905E3,2.9420447E3,2.3872478E3,3.8630427E3,2.1764426E3,7.6560205E2],"tree_param":{"num_deleted":"0","num_feature":"55","num_nodes":"7","size_leaf_vector":"0"}},{"base_weights":[-0E0,-5.021048E-2,5.359315E-3,-9.231213E-2,-0E0,-3.5396256E-2,2.873555E-2],"categories":[],"categories_nodes":[],"categories_segments":[],"categories_sizes":[],"default_left":[1,1,1,0,0,0,0],"id":75,"left_children":[1,3,5,-1,-1,-1,-1],"loss_changes":[5.974309E0,8.365286E0,7.3511205E0,0E0,0E0,0E0,0E0],"parents":[2147483647,0,0,1,1,2,2],"right_children":[2,4,6,-1,-1,-1,-1],"split_conditions":[1.0981187E0,1.9234524E1,2.18E1,-1.8462425E-2,-0E0,-7.079251E-3,5.74711E-3],"split_indices":[46,9,48,0,0,0,0],"split_type":[0,0,0,0,0,0,0],"sum_hessian":[9.16126E3,1.77994E3,7.3813193E3,1.1561847E3,6.2375525E2,1.0375109E3,6.3438086E3],"tree_param":{"num_deleted":"0","num_feature":"55","num_nodes":"7","size_leaf_vector":"0"}},{"base_weights":[-0E0,-2.9982297E-2,1.4727082E-2,-0E0,-6.382401E-2,5.196797E-2,-0E0],"categories":[],"categories_nodes":[],"categories_segments":[],"categories_sizes":[],"default_left":[1,1,1,0,0,0,0],"id":76,"left_children":[1,3,5,-1,-1,-1,-1],"loss_changes":[5.3486147E0,7.612639E0,7.054315E0,0E0,0E0,0E0,0E0],"parents":[2147483647,0,0,1,1,2,2],"right_children":[2,4,6,-1,-1,-1,-1],"split_conditions":[1.2052076E0,1.0200488E2,2.8005554E1,-0E0,-1.2764803E-2,1.0393594E-2,-0E0],"split_indices":[46,31,42,0,0,0,0],"split_type":[0,0,0,0,0,0,0],"sum_hessian":[9.13938E3,4.117711E3,5.0216694E3,1.7298594E3,2.3878516E3,2.5554988E3,2.4661707E3],"tree_param":{"num_deleted":"0","num_feature":"55","num_nodes":"7","size_leaf_vector":"0"}},{"base_weights":[-0E0,-6.643987E-2,9.869314E-3,-9.18748E-2,-0E0,-7.8044473E-3,4.2484038E-2],"categories":[],"categories_nodes":[],"categories_segments":[],"categories_sizes":[],"default_left":[1,1,1,0,0,0,0],"id":77,"left_children":[1,3,5,-1,-1,-1,-1],"loss_changes":[7.361063E0,4.567159E0,8.634792E0,0E0,0E0,0E0,0E0],"parents":[2147483647,0,0,1,1,2,2],"right_children":[2,4,6,-1,-1,-1,-1],"split_conditions":[-1.2915E3,1.5894444E2,7.122905E1,-1.837496E-2,-0E0,-1.5608895E-3,8.496808E-3],"split_indices":[0,24,35,0,0,0,0],"split_type":[0,0,0,0,0,0,0],"sum_hessian":[9.1521045E3,9.761251E2,8.1759795E3,8.130175E2,1.631076E2,3.5607048E3,4.6152744E3],"tree_param":{"num_deleted":"0","num_feature":"55","num_nodes":"7","size_leaf_vector":"0"}},{"base_weights":[-0E0,-2.8622307E-2,1.293936E-2,-0E0,-6.7260884E-2,5.2471455E-2,-0E0],"categories":[],"categories_nodes":[],"categories_segments":[],"categories_sizes":[],"default_left":[1,1,1,0,0,0,0],"id":78,"left_children":[1,3,5,-1,-1,-1,-1],"loss_changes":[4.3113775E0,7.5569067E0,8.029437E0,0E0,0E0,0E0,0E0],"parents":[2147483647,0,0,1,1,2,2],"right_children":[2,4,6,-1,-1,-1,-1],"split_conditions":[7.451457E1,-8.795E2,2.8126173E1,-0E0,-1.3452177E-2,1.0494291E-2,-0E0],"split_indices":[8,1,42,0,0,0,0],"split_type":[0,0,0,0,0,0,0],"sum_hessian":[9.141513E3,3.5094758E3,5.632037E3,1.6130233E3,1.8964525E3,2.7892378E3,2.842799E3],"tree_param":{"num_deleted":"0","num_feature":"55","num_nodes":"7","size_leaf_vector":"0"}},{"base_weights":[-0E0,-1.11109195E-2,3.670367E-2,-3.39798E-2,8.623125E-3,6.3436195E-2,-0E0],"categories":[],"categories_nodes":[],"categories_segments":[],"categories_sizes":[],"default_left":[1,1,1,0,0,0,0],"id":79,"left_children":[1,3,5,-1,-1,-1,-1],"loss_changes":[4.535868E0,6.0568295E0,6.1302357E0,0E0,0E0,0E0,0E0],"parents":[2147483647,0,0,1,1,2,2],"right_children":[2,4,6,-1,-1,-1,-1],"split_conditions":[2.4522078E0,5E-1,2.958407E1,-6.79596E-3,1.724625E-3,1.2687239E-2,-0E0],"split_indices":[37,53,7,0,0,0,0],"split_type":[0,0,0,0,0,0,0],"sum_hessian":[9.159444E3,6.977707E3,2.1817368E3,5.4121987E3,1.5655083E3,1.9211224E3,2.6061444E2],"tree_param":{"num_deleted":"0","num_feature":"55","num_nodes":"7","size_leaf_vector":"0"}},{"base_weights":[-0E0,-5.969182E-2,-0E0,-7.468357E-2,-0E0,-3.853189E-2,2.3490015E-2],"categories":[],"categories_nodes":[],"categories_segments":[],"categories_sizes":[],"default_left":[1,1,1,0,0,0,0],"id":80,"left_children":[1,3,5,-1,-1,-1,-1],"loss_changes":[4.6896806E0,2.433209E0,7.0696816E0,0E0,0E0,0E0,0E0],"parents":[2147483647,0,0,1,1,2,2],"right_children":[2,4,6,-1,-1,-1,-1],"split_conditions":[6.3984E1,6.625E1,2.48E1,-1.4936714E-2,-0E0,-7.7063777E-3,4.698003E-3],"split_indices":[8,13,48,0,0,0,0],"split_type":[0,0,0,0,0,0,0],"sum_hessian":[9.106535E3,8.1617487E2,8.29036E3,7.7704474E2,3.91301E1,1.5831658E3,6.7071943E3],"tree_param":{"num_deleted":"0","num_feature":"55","num_nodes":"7","size_leaf_vector":"0"}},{"base_weights":[-0E0,-6.407434E-2,1.7463726E-4,-7.5867765E-2,-0E0,-2.1148233E-3,4.798458E-2],"categories":[],"categories_nodes":[],"categories_segments":[],"categories_sizes":[],"default_left":[1,1,1,0,0,0,0],"id":81,"left_children":[1,3,5,-1,-1,-1,-1],"loss_changes":[3.6345E0,1.3546972E0,5.648732E0,0E0,0E0,0E0,0E0],"parents":[2147483647,0,0,1,1,2,2],"right_children":[2,4,6,-1,-1,-1,-1],"split_conditions":[3.4675343E1,4.08E2,3.843333E-1,-1.51735535E-2,-0E0,-4.2296466E-4,9.596917E-3],"split_indices":[2,15,34,0,0,0,0],"split_type":[0,0,0,0,0,0,0],"sum_hessian":[9.1217E3,3.8520264E2,8.736497E3,3.667454E2,1.8457228E1,6.7972666E3,1.9392308E3],"tree_param":{"num_deleted":"0","num_feature":"55","num_nodes":"7","size_leaf_vector":"0"}},{"base_weights":[-1.188772E-3,-3.875293E-2,-0E0,-6.739253E-2,-0E0,-1.0205078E-2,4.525848E-2],"categories":[],"categories_nodes":[],"categories_segments":[],"categories_sizes":[],"default_left":[1,1,1,0,0,0,0],"id":82,"left_children":[1,3,5,-1,-1,-1,-1],"loss_changes":[3.9383423E0,6.2476234E0,6.8658233E0,0E0,0E0,0E0,0E0],"parents":[2147483647,0,0,1,1,2,2],"right_children":[2,4,6,-1,-1,-1,-1],"split_conditions":[4.0865395E1,3.9421112E1,8.191541E1,-1.3478505E-2,-0E0,-2.0410155E-3,9.051696E-3],"split_indices":[25,42,8,0,0,0,0],"split_type":[0,0,0,0,0,0,0],"sum_hessian":[9.1257E3,2.1314905E3,6.9942095E3,1.7457343E3,3.8575626E2,4.3909697E3,2.60324E3],"tree_param":{"num_deleted":"0","num_feature":"55","num_nodes":"7","size_leaf_vector":"0"}},{"base_weights":[-0E0,1.4584253E-2,-2.1896683E-2,4.6145488E-2,-0E0,-5.0029006E-2,-0E0],"categories":[],"categories_nodes":[],"categories_segments":[],"categories_sizes":[],"default_left":[1,1,1,0,0,0,0],"id":83,"left_children":[1,3,5,-1,-1,-1,-1],"loss_changes":[3.5806696E0,6.356656E0,8.176737E0,0E0,0E0,0E0,0E0],"parents":[2147483647,0,0,1,1,2,2],"right_children":[2,4,6,-1,-1,-1,-1],"split_conditions":[2.649534E1,2.6389256E1,-4.915E2,9.2290975E-3,-0E0,-1.0005801E-2,-0E0],"split_indices":[42,7,0,0,0,0,0],"split_type":[0,0,0,0,0,0,0],"sum_hessian":[9.116966E3,4.2609766E3,4.8559897E3,2.9607385E3,1.3002378E3,3.792915E3,1.0630747E3],"tree_param":{"num_deleted":"0","num_feature":"55","num_nodes":"7","size_leaf_vector":"0"}},{"base_weights":[-0E0,-4.0456723E-2,7.712718E-3,-0E0,-7.07301E-2,6.1022073E-2,-2.4565824E-3],"categories":[],"categories_nodes":[],"categories_segments":[],"categories_sizes":[],"default_left":[1,1,1,0,0,0,0],"id":84,"left_children":[1,3,5,-1,-1,-1,-1],"loss_changes":[3.0355859E0,3.4804785E0,1.0582727E1,0E0,0E0,0E0,0E0],"parents":[2147483647,0,0,1,1,2,2],"right_children":[2,4,6,-1,-1,-1,-1],"split_conditions":[8.1752525E1,-1.1026516E0,1.7009317E2,-0E0,-1.414602E-2,1.2204415E-2,-4.913165E-4],"split_indices":[20,49,20,0,0,0,0],"split_type":[0,0,0,0,0,0,0],"sum_hessian":[9.122538E3,1.0428247E3,8.079714E3,3.42346E2,7.004787E2,2.469155E3,5.6105586E3],"tree_param":{"num_deleted":"0","num_feature":"55","num_nodes":"7","size_leaf_vector":"0"}},{"base_weights":[-0E0,-1.0143765E-2,2.5119666E-2,-3.44086E-2,4.8707416E-3,5.6905538E-2,-0E0],"categories":[],"categories_nodes":[],"categories_segments":[],"categories_sizes":[],"default_left":[1,1,1,0,0,0,0],"id":85,"left_children":[1,3,5,-1,-1,-1,-1],"loss_changes":[1.889569E0,6.149746E0,3.2247407E0,0E0,0E0,0E0,0E0],"parents":[2147483647,0,0,1,1,2,2],"right_children":[2,4,6,-1,-1,-1,-1],"split_conditions":[-3.695E2,6.0989037E0,3.308378E1,-6.88172E-3,9.7414834E-4,1.1381107E-2,-0E0],"split_indices":[0,16,14,0,0,0,0],"split_type":[0,0,0,0,0,0,0],"sum_hessian":[9.143876E3,8.042281E3,1.101595E3,5.373151E3,2.66913E3,8.079152E2,2.9367975E2],"tree_param":{"num_deleted":"0","num_feature":"55","num_nodes":"7","size_leaf_vector":"0"}},{"base_weights":[-0E0,4.72018E-4,-5.81705E-2,-5.099242E-2,1.7528728E-2,-7.954123E-2,-0E0],"categories":[],"categories_nodes":[],"categories_segments":[],"categories_sizes":[],"default_left":[1,1,1,0,0,0,0],"id":86,"left_children":[1,3,5,-1,-1,-1,-1],"loss_changes":[5.235522E0,4.649172E0,3.811108E0,0E0,0E0,0E0,0E0],"parents":[2147483647,0,0,1,1,2,2],"right_children":[2,4,6,-1,-1,-1,-1],"split_conditions":[-2.608021E-1,1.47E1,1.0600877E2,-1.0198484E-2,3.5057457E-3,-1.5908247E-2,-0E0],"split_indices":[49,48,31,0,0,0,0],"split_type":[0,0,0,0,0,0,0],"sum_hessian":[9.146006E3,8.099344E3,1.046662E3,3.0910623E2,7.7902383E3,9.2958594E2,1.1707608E2],"tree_param":{"num_deleted":"0","num_feature":"55","num_nodes":"7","size_leaf_vector":"0"}},{"base_weights":[-0E0,-1.7460993E-2,1.6625728E-2,-0E0,-3.70725E-2,4.2946946E-2,-0E0],"categories":[],"categories_nodes":[],"categories_segments":[],"categories_sizes":[],"default_left":[1,1,1,0,0,0,0],"id":87,"left_children":[1,3,5,-1,-1,-1,-1],"loss_changes":[3.0012703E0,5.923864E0,3.9353719E0,0E0,0E0,0E0,0E0],"parents":[2147483647,0,0,1,1,2,2],"right_children":[2,4,6,-1,-1,-1,-1],"split_conditions":[5.0124645E0,-1.1512666E0,2.7876661E1,-0E0,-7.4144998E-3,8.58939E-3,-0E0],"split_indices":[18,49,7,0,0,0,0],"split_type":[0,0,0,0,0,0,0],"sum_hessian":[9.154046E3,6.3328687E3,2.8211775E3,1.0068467E3,5.326022E3,2.1313647E3,6.898127E2],"tree_param":{"num_deleted":"0","num_feature":"55","num_nodes":"7","size_leaf_vector":"0"}},{"base_weights":[-0E0,-1.709447E-2,1.4948665E-2,-0E0,-4.8709486E-2,-0E0,3.833385E-2],"categories":[],"categories_nodes":[],"categories_segments":[],"categories_sizes":[],"default_left":[1,1,1,0,0,0,0],"id":88,"left_children":[1,3,5,-1,-1,-1,-1],"loss_changes":[2.6106029E0,4.6115084E0,5.281702E0,0E0,0E0,0E0,0E0],"parents":[2147483647,0,0,1,1,2,2],"right_children":[2,4,6,-1,-1,-1,-1],"split_conditions":[7.439805E1,8.053046E1,8.985215E1,-0E0,-9.741898E-3,-0E0,7.6667704E-3],"split_indices":[35,10,20,0,0,0,0],"split_type":[0,0,0,0,0,0,0],"sum_hessian":[9.119794E3,4.578769E3,4.541025E3,2.5096064E3,2.0691626E3,6.801869E2,3.860838E3],"tree_param":{"num_deleted":"0","num_feature":"55","num_nodes":"7","size_leaf_vector":"0"}},{"base_weights":[-0E0,-5.953172E-2,-0E0,-0E0,-8.3464175E-2,7.749197E-2,-3.567206E-3],"categories":[],"categories_nodes":[],"categories_segments":[],"categories_sizes":[],"default_left":[1,1,1,0,0,0,0],"id":89,"left_children":[1,3,5,-1,-1,-1,-1],"loss_changes":[3.2956696E0,2.5359583E0,9.550239E0,0E0,0E0,0E0,0E0],"parents":[2147483647,0,0,1,1,2,2],"right_children":[2,4,6,-1,-1,-1,-1],"split_conditions":[1.61E1,9.895E1,-1.1812584E0,-0E0,-1.6692836E-2,1.5498394E-2,-7.1344123E-4],"split_indices":[48,31,49,0,0,0,0],"split_type":[0,0,0,0,0,0,0],"sum_hessian":[9.134729E3,4.299227E2,8.704807E3,9.2799164E1,3.3712354E2,1.0731483E3,7.6316577E3],"tree_param":{"num_deleted":"0","num_feature":"55","num_nodes":"7","size_leaf_vector":"0"}},{"base_weights":[-1.2102482E-3,-0E0,-4.680281E-2,-2.040718E-2,2.1286417E-2,-7.072125E-2,-0E0],"categories":[],"categories_nodes":[],"categories_segments":[],"categories_sizes":[],"default_left":[1,1,1,0,0,0,0],"id":90,"left_children":[1,3,5,-1,-1,-1,-1],"loss_changes":[3.0069914E0,4.0451164E0,3.3348916E0,0E0,0E0,0E0,0E0],"parents":[2147483647,0,0,1,1,2,2],"right_children":[2,4,6,-1,-1,-1,-1],"split_conditions":[9.500239E-1,5.1961643E1,7.0560184E0,-4.081436E-3,4.2572836E-3,-1.4144249E-2,-0E0],"split_indices":[12,2,21,0,0,0,0],"split_type":[0,0,0,0,0,0,0],"sum_hessian":[9.08403E3,8.204882E3,8.7914844E2,2.9295432E3,5.275339E3,7.7080426E2,1.0834418E2],"tree_param":{"num_deleted":"0","num_feature":"55","num_nodes":"7","size_leaf_vector":"0"}},{"base_weights":[-0E0,-3.6592968E-2,2.0109604E-3,-0E0,-6.193605E-2,3.3420537E-2,-4.4664126E-3],"categories":[],"categories_nodes":[],"categories_segments":[],"categories_sizes":[],"default_left":[1,1,1,0,0,0,0],"id":91,"left_children":[1,3,5,-1,-1,-1,-1],"loss_changes":[3.753634E0,5.5447893E0,4.462335E0,0E0,0E0,0E0,0E0],"parents":[2147483647,0,0,1,1,2,2],"right_children":[2,4,6,-1,-1,-1,-1],"split_conditions":[7.030054E1,-1.0830201E0,2.805119E1,-0E0,-1.23872105E-2,6.6841072E-3,-8.9328253E-4],"split_indices":[8,49,42,0,0,0,0],"split_type":[0,0,0,0,0,0,0],"sum_hessian":[9.115922E3,2.281065E3,6.8348564E3,3.648549E2,1.9162101E3,3.452385E3,3.3824714E3],"tree_param":{"num_deleted":"0","num_feature":"55","num_nodes":"7","size_leaf_vector":"0"}},{"base_weights":[-0E0,-4.558904E-2,-0E0,-0E0,-6.545632E-2,7.040544E-2,-3.8025456E-3],"categories":[],"categories_nodes":[],"categories_segments":[],"categories_sizes":[],"default_left":[1,1,1,0,0,0,0],"id":92,"left_children":[1,3,5,-1,-1,-1,-1],"loss_changes":[1.7666603E0,1.5658206E0,7.977026E0,0E0,0E0,0E0,0E0],"parents":[2147483647,0,0,1,1,2,2],"right_children":[2,4,6,-1,-1,-1,-1],"split_conditions":[1.53E1,9.8010864E1,-1.191256E0,-0E0,-1.3091265E-2,1.4081088E-2,-7.605091E-4],"split_indices":[48,31,49,0,0,0,0],"split_type":[0,0,0,0,0,0,0],"sum_hessian":[9.099697E3,3.500259E2,8.749671E3,7.223211E1,2.777938E2,1.0854539E3,7.6642173E3],"tree_param":{"num_deleted":"0","num_feature":"55","num_nodes":"7","size_leaf_vector":"0"}},{"base_weights":[-0E0,-3.6932755E-2,-0E0,-6.805413E-2,-0E0,-7.165991E-3,4.8173767E-2],"categories":[],"categories_nodes":[],"categories_segments":[],"categories_sizes":[],"default_left":[1,1,1,0,0,0,0],"id":93,"left_children":[1,3,5,-1,-1,-1,-1],"loss_changes":[2.0959516E0,4.0034566E0,5.6733665E0,0E0,0E0,0E0,0E0],"parents":[2147483647,0,0,1,1,2,2],"right_children":[2,4,6,-1,-1,-1,-1],"split_conditions":[8.1752525E1,2.4815164E0,5E-1,-1.3610827E-2,-0E0,-1.4331982E-3,9.634754E-3],"split_indices":[20,37,4,0,0,0,0],"split_type":[0,0,0,0,0,0,0],"sum_hessian":[9.109629E3,1.0365894E3,8.0730396E3,8.1697864E2,2.1961073E2,6.2783613E3,1.7946785E3],"tree_param":{"num_deleted":"0","num_feature":"55","num_nodes":"7","size_leaf_vector":"0"}},{"base_weights":[-0E0,-3.9410274E-2,-0E0,-1.0535451E-1,-0E0,2.6161876E-2,-3.0356249E-2],"categories":[],"categories_nodes":[],"categories_segments":[],"categories_sizes":[],"default_left":[1,1,1,0,0,0,0],"id":94,"left_children":[1,3,5,-1,-1,-1,-1],"loss_changes":[2.5915415E0,9.42544E0,6.6848173E0,0E0,0E0,0E0,0E0],"parents":[2147483647,0,0,1,1,2,2],"right_children":[2,4,6,-1,-1,-1,-1],"split_conditions":[2.18E1,5.517945E1,8.180422E1,-2.1070903E-2,-0E0,5.232375E-3,-6.07125E-3],"split_indices":[48,2,28,0,0,0,0],"split_type":[0,0,0,0,0,0,0],"sum_hessian":[9.056383E3,1.16855E3,7.887833E3,5.826525E2,5.858976E2,5.850074E3,2.0377587E3],"tree_param":{"num_deleted":"0","num_feature":"55","num_nodes":"7","size_leaf_vector":"0"}},{"base_weights":[-0E0,1.7203743E-2,-1.8735673E-2,5.2907463E-2,-0E0,-4.9724642E-2,4.0439204E-3],"categories":[],"categories_nodes":[],"categories_segments":[],"categories_sizes":[],"default_left":[1,1,1,0,0,0,0],"id":95,"left_children":[1,3,5,-1,-1,-1,-1],"loss_changes":[3.3187766E0,7.7370205E0,8.908168E0,0E0,0E0,0E0,0E0],"parents":[2147483647,0,0,1,1,2,2],"right_children":[2,4,6,-1,-1,-1,-1],"split_conditions":[2.0499501E-2,8.64336E-1,3.3577776E-1,1.0581492E-2,-0E0,-9.944929E-3,8.087841E-4],"split_indices":[40,12,34,0,0,0,0],"split_type":[0,0,0,0,0,0,0],"sum_hessian":[9.096066E3,3.590318E3,5.505748E3,2.6964946E3,8.9382355E2,3.9418232E3,1.5639249E3],"tree_param":{"num_deleted":"0","num_feature":"55","num_nodes":"7","size_leaf_vector":"0"}},{"base_weights":[-0E0,-4.488813E-2,5.2482034E-3,-0E0,-7.364849E-2,-2.824282E-2,1.9931683E-2],"categories":[],"categories_nodes":[],"categories_segments":[],"categories_sizes":[],"default_left":[1,1,1,0,0,0,0],"id":96,"left_children":[1,3,5,-1,-1,-1,-1],"loss_changes":[2.379243E0,2.8829286E0,3.900708E0,0E0,0E0,0E0,0E0],"parents":[2147483647,0,0,1,1,2,2],"right_children":[2,4,6,-1,-1,-1,-1],"split_conditions":[3.865091E1,1.00789154E2,3.4675343E1,-0E0,-1.4729698E-2,-5.648564E-3,3.9863368E-3],"split_indices":[17,31,2,0,0,0,0],"split_type":[0,0,0,0,0,0,0],"sum_hessian":[9.106861E3,5.5709094E2,8.5497705E3,1.3289937E2,4.2419156E2,3.8943237E2,8.1603384E3],"tree_param":{"num_deleted":"0","num_feature":"55","num_nodes":"7","size_leaf_vector":"0"}},{"base_weights":[-0E0,-2.0123206E-2,7.931412E-3,-4.7390997E-2,-0E0,3.7294537E-2,-1.0484946E-2],"categories":[],"categories_nodes":[],"categories_segments":[],"categories_sizes":[],"default_left":[1,1,1,0,0,0,0],"id":97,"left_children":[1,3,5,-1,-1,-1,-1],"loss_changes":[2.130604E0,5.707194E0,5.9899626E0,0E0,0E0,0E0,0E0],"parents":[2147483647,0,0,1,1,2,2],"right_children":[2,4,6,-1,-1,-1,-1],"split_conditions":[1.7197403E1,-4.985E2,8.1178886E-1,-9.478199E-3,-0E0,7.4589076E-3,-2.0969892E-3],"split_indices":[9,0,12,0,0,0,0],"split_type":[0,0,0,0,0,0,0],"sum_hessian":[9.124647E3,3.8670522E3,5.2575947E3,2.8285457E3,1.0385066E3,3.9219062E3,1.3356885E3],"tree_param":{"num_deleted":"0","num_feature":"55","num_nodes":"7","size_leaf_vector":"0"}},{"base_weights":[-0E0,6.484702E-4,-3.4391947E-2,-9.917407E-3,2.8955858E-2,-0E0,-8.444584E-2],"categories":[],"categories_nodes":[],"categories_segments":[],"categories_sizes":[],"default_left":[1,1,1,0,0,0,0],"id":98,"left_children":[1,3,5,-1,-1,-1,-1],"loss_changes":[3.3051722E0,4.226311E0,1.0253904E1,0E0,0E0,0E0,0E0],"parents":[2147483647,0,0,1,1,2,2],"right_children":[2,4,6,-1,-1,-1,-1],"split_conditions":[3.3298288E2,4.511814E3,-1.0245E3,-1.9834815E-3,5.791172E-3,-0E0,-1.6889168E-2],"split_indices":[15,27,1,0,0,0,0],"split_type":[0,0,0,0,0,0,0],"sum_hessian":[9.07674E3,6.7849814E3,2.2917583E3,2.6048774E3,4.180104E3,8.907877E2,1.4009707E3],"tree_param":{"num_deleted":"0","num_feature":"55","num_nodes":"7","size_leaf_vector":"0"}},{"base_weights":[-0E0,-1.5651718E-2,1.6084129E-2,-4.491273E-2,5.931774E-3,4.2444136E-2,-0E0],"categories":[],"categories_nodes":[],"categories_segments":[],"categories_sizes":[],"default_left":[1,1,1,0,0,0,0],"id":99,"left_children":[1,3,5,-1,-1,-1,-1],"loss_changes":[2.514146E0,8.148874E0,4.4937854E0,0E0,0E0,0E0,0E0],"parents":[2147483647,0,0,1,1,2,2],"right_children":[2,4,6,-1,-1,-1,-1],"split_conditions":[6.0989037E0,1.5276006E2,3.489781E2,-8.982546E-3,1.1863549E-3,8.488827E-3,-0E0],"split_indices":[16,24,15,0,0,0,0],"split_type":[0,0,0,0,0,0,0],"sum_hessian":[9.06426E3,6.0197397E3,3.0445198E3,4.2927427E3,1.7269968E3,2.5034617E3,5.410583E2],"tree_param":{"num_deleted":"0","num_feature":"55","num_nodes":"7","size_leaf_vector":"0"}},{"base_weights":[-0E0,-3.8589768E-2,1.909584E-3,-6.4578794E-2,-0E0,2.1903776E-2,-1.9482233E-2],"categories":[],"categories_nodes":[],"categories_segments":[],"categories_sizes":[],"default_left":[1,1,1,0,0,0,0],"id":100,"left_children":[1,3,5,-1,-1,-1,-1],"loss_changes":[1.3662282E0,2.0020978E0,4.391878E0,0E0,0E0,0E0,0E0],"parents":[2147483647,0,0,1,1,2,2],"right_children":[2,4,6,-1,-1,-1,-1],"split_conditions":[3.4675343E1,5.364295E0,6.602603E1,-1.2915759E-2,-0E0,4.380755E-3,-3.8964467E-3],"split_indices":[2,23,2,0,0,0,0],"split_type":[0,0,0,0,0,0,0],"sum_hessian":[9.098193E3,3.9490668E2,8.703287E3,2.9962347E2,9.52832E1,6.908691E3,1.794596E3],"tree_param":{"num_deleted":"0","num_feature":"55","num_nodes":"7","size_leaf_vector":"0"}},{"base_weights":[-0E0,-5.0132565E-2,1.8102479E-3,-0E0,-7.104447E-2,1.9361837E-2,-3.5009556E-2],"categories":[],"categories_nodes":[],"categories_segments":[],"categories_sizes":[],"default_left":[1,1,1,0,0,0,0],"id":101,"left_children":[1,3,5,-1,-1,-1,-1],"loss_changes":[2.0589535E0,1.8775258E0,4.7540226E0,0E0,0E0,0E0,0E0],"parents":[2147483647,0,0,1,1,2,2],"right_children":[2,4,6,-1,-1,-1,-1],"split_conditions":[1.47E1,9.619768E1,9.566779E-1,-0E0,-1.4208893E-2,3.8723673E-3,-7.0019113E-3],"split_indices":[48,31,12,0,0,0,0],"split_type":[0,0,0,0,0,0,0],"sum_hessian":[9.060407E3,3.071665E2,8.75324E3,3.325884E1,2.7390768E2,7.92736E3,8.258809E2],"tree_param":{"num_deleted":"0","num_feature":"55","num_nodes":"7","size_leaf_vector":"0"}},{"base_weights":[-1.6407075E-4,-1.8641526E-2,1.1925764E-2,-4.8260823E-2,-0E0,-0E0,5.5544343E-2],"categories":[],"categories_nodes":[],"categories_segments":[],"categories_sizes":[],"default_left":[1,1,1,0,0,0,0],"id":102,"left_children":[1,3,5,-1,-1,-1,-1],"loss_changes":[2.913552E0,8.447936E0,6.2046103E0,0E0,0E0,0E0,0E0],"parents":[2147483647,0,0,1,1,2,2],"right_children":[2,4,6,-1,-1,-1,-1],"split_conditions":[3.3769923E-1,5.603639E0,4.681507E1,-9.652165E-3,-0E0,-0E0,1.1108869E-2],"split_indices":[34,32,2,0,0,0,0],"split_type":[0,0,0,0,0,0,0],"sum_hessian":[9.038584E3,6.7392017E3,2.2993818E3,4.2072144E3,2.5319873E3,6.5922723E2,1.6401545E3],"tree_param":{"num_deleted":"0","num_feature":"55","num_nodes":"7","size_leaf_vector":"0"}},{"base_weights":[-0E0,-4.4732787E-2,8.019916E-3,-7.2148584E-2,-0E0,-8.183205E-3,2.4279153E-2],"categories":[],"categories_nodes":[],"categories_segments":[],"categories_sizes":[],"default_left":[1,1,1,0,0,0,0],"id":103,"left_children":[1,3,5,-1,-1,-1,-1],"loss_changes":[2.7000823E0,3.1655993E0,4.0916266E0,0E0,0E0,0E0,0E0],"parents":[2147483647,0,0,1,1,2,2],"right_children":[2,4,6,-1,-1,-1,-1],"split_conditions":[3.8706787E1,3.825E2,-1.2545E3,-1.4429717E-2,-0E0,-1.636641E-3,4.8558307E-3],"split_indices":[17,33,1,0,0,0,0],"split_type":[0,0,0,0,0,0,0],"sum_hessian":[9.102817E3,5.586437E2,8.544173E3,5.150902E2,4.355343E1,1.3233716E3,7.220802E3],"tree_param":{"num_deleted":"0","num_feature":"55","num_nodes":"7","size_leaf_vector":"0"}},{"base_weights":[-0E0,-4.2217962E-2,5.1798077E-5,-8.217565E-2,-0E0,-5.839933E-3,3.1033114E-2],"categories":[],"categories_nodes":[],"categories_segments":[],"categories_sizes":[],"default_left":[1,1,1,0,0,0,0],"id":104,"left_children":[1,3,5,-1,-1,-1,-1],"loss_changes":[2.8631086E0,6.657033E0,4.1590867E0,0E0,0E0,0E0,0E0],"parents":[2147483647,0,0,1,1,2,2],"right_children":[2,4,6,-1,-1,-1,-1],"split_conditions":[-1.2365E3,1.5894444E2,1.5E0,-1.643513E-2,-0E0,-1.1679867E-3,6.206623E-3],"split_indices":[0,24,50,0,0,0,0],"split_type":[0,0,0,0,0,0,0],"sum_hessian":[9.093297E3,1.1063486E3,7.9869487E3,9.0979535E2,1.965533E2,4.3396704E3,3.6472783E3],"tree_param":{"num_deleted":"0","num_feature":"55","num_nodes":"7","size_leaf_vector":"0"}},{"base_weights":[-4.4270535E-3,-2.0317433E-2,4.0516183E-3,-0E0,-4.0580995E-2,4.8720807E-2,-0E0],"categories":[],"categories_nodes":[],"categories_segments":[],"categories_sizes":[],"default_left":[1,1,1,0,0,0,0],"id":105,"left_children":[1,3,5,-1,-1,-1,-1],"loss_changes":[2.9523478E0,6.3617687E0,4.1009145E0,0E0,0E0,0E0,0E0],"parents":[2147483647,0,0,1,1,2,2],"right_children":[2,4,6,-1,-1,-1,-1],"split_conditions":[1.5414395E2,4.775266E0,7.968889E1,-0E0,-8.1162E-3,9.744162E-3,-0E0],"split_indices":[24,32,28,0,0,0,0],"split_type":[0,0,0,0,0,0,0],"sum_hessian":[9.034725E3,7.0040923E3,2.0306327E3,1.7600156E3,5.2440767E3,1.2451349E3,7.854978E2],"tree_param":{"num_deleted":"0","num_feature":"55","num_nodes":"7","size_leaf_vector":"0"}},{"base_weights":[-0E0,-3.805784E-2,1.365376E-4,-0E0,-6.404014E-2,4.4475965E-2,-3.0523707E-4],"categories":[],"categories_nodes":[],"categories_segments":[],"categories_sizes":[],"default_left":[1,1,1,0,0,0,0],"id":106,"left_children":[1,3,5,-1,-1,-1,-1],"loss_changes":[1.7491572E0,2.8746393E0,4.5971527E0,0E0,0E0,0E0,0E0],"parents":[2147483647,0,0,1,1,2,2],"right_children":[2,4,6,-1,-1,-1,-1],"split_conditions":[1.91E1,1.883339E2,5.7930756E-1,-0E0,-1.2808028E-2,8.895193E-3,-6.1047416E-5],"split_indices":[48,15,12,0,0,0,0],"split_type":[0,0,0,0,0,0,0],"sum_hessian":[9.054373E3,7.075346E2,8.346839E3,8.0132805E1,6.274018E2,1.8237635E3,6.523075E3],"tree_param":{"num_deleted":"0","num_feature":"55","num_nodes":"7","size_leaf_vector":"0"}},{"base_weights":[-0E0,-1.6291857E-2,8.719938E-3,-0E0,-4.7159173E-2,-0E0,3.8131904E-2],"categories":[],"categories_nodes":[],"categories_segments":[],"categories_sizes":[],"default_left":[1,1,1,0,0,0,0],"id":107,"left_children":[1,3,5,-1,-1,-1,-1],"loss_changes":[2.12726E0,5.7425146E0,3.380595E0,0E0,0E0,0E0,0E0],"parents":[2147483647,0,0,1,1,2,2],"right_children":[2,4,6,-1,-1,-1,-1],"split_conditions":[6.3303947E0,1.87414E0,2.45E1,-0E0,-9.431834E-3,-0E0,7.626381E-3],"split_indices":[21,22,48,0,0,0,0],"split_type":[0,0,0,0,0,0,0],"sum_hessian":[9.068654E3,6.6898525E3,2.3788015E3,3.7496904E3,2.9401624E3,4.0329434E2,1.9755071E3],"tree_param":{"num_deleted":"0","num_feature":"55","num_nodes":"7","size_leaf_vector":"0"}},{"base_weights":[-0E0,-3.4346968E-2,-0E0,-0E0,-6.0675528E-2,3.2343082E-2,-8.090483E-3],"categories":[],"categories_nodes":[],"categories_segments":[],"categories_sizes":[],"default_left":[1,1,1,0,0,0,0],"id":108,"left_children":[1,3,5,-1,-1,-1,-1],"loss_changes":[1.9904315E0,3.1082776E0,3.9042687E0,0E0,0E0,0E0,0E0],"parents":[2147483647,0,0,1,1,2,2],"right_children":[2,4,6,-1,-1,-1,-1],"split_conditions":[1.8993977E1,5.9262413E1,2.3759403E1,-0E0,-1.2135106E-2,6.4686164E-3,-1.6180966E-3],"split_indices":[14,35,42,0,0,0,0],"split_type":[0,0,0,0,0,0,0],"sum_hessian":[9.036829E3,1.187215E3,7.849614E3,3.0226794E2,8.8494696E2,2.8907249E3,4.9588887E3],"tree_param":{"num_deleted":"0","num_feature":"55","num_nodes":"7","size_leaf_vector":"0"}},{"base_weights":[-0E0,3.4536638E-3,-2.839068E-2,-0E0,3.2732166E-2,-0E0,-6.5411344E-2],"categories":[],"categories_nodes":[],"categories_segments":[],"categories_sizes":[],"default_left":[1,1,1,0,0,0,0],"id":109,"left_children":[1,3,5,-1,-1,-1,-1],"loss_changes":[2.0624473E0,3.8387494E0,5.2127857E0,0E0,0E0,0E0,0E0],"parents":[2147483647,0,0,1,1,2,2],"right_children":[2,4,6,-1,-1,-1,-1],"split_conditions":[3.4001672E2,4.7745967E3,-8.525E2,-0E0,6.5464335E-3,-0E0,-1.3082269E-2],"split_indices":[15,27,1,0,0,0,0],"split_type":[0,0,0,0,0,0,0],"sum_hessian":[9.051678E3,7.105454E3,1.9462233E3,3.9378364E3,3.167618E3,7.670661E2,1.1791571E3],"tree_param":{"num_deleted":"0","num_feature":"55","num_nodes":"7","size_leaf_vector":"0"}},{"base_weights":[-0E0,1.6158586E-2,-1.3777718E-2,-0E0,5.0226793E-2,-0E0,-4.535644E-2],"categories":[],"categories_nodes":[],"categories_segments":[],"categories_sizes":[],"default_left":[1,1,1,0,0,0,0],"id":110,"left_children":[1,3,5,-1,-1,-1,-1],"loss_changes":[2.154128E0,6.3177247E0,6.971495E0,0E0,0E0,0E0,0E0],"parents":[2147483647,0,0,1,1,2,2],"right_children":[2,4,6,-1,-1,-1,-1],"split_conditions":[2.2971487E0,4.3271233E1,2.4098026E1,-0E0,1.0045359E-2,-0E0,-9.071289E-3],"split_indices":[37,2,7,0,0,0,0],"split_type":[0,0,0,0,0,0,0],"sum_hessian":[9.0769E3,2.8851555E3,6.1917446E3,5.304756E2,2.35468E3,2.6854583E3,3.5062864E3],"tree_param":{"num_deleted":"0","num_feature":"55","num_nodes":"7","size_leaf_vector":"0"}},{"base_weights":[-0E0,-1.2892683E-2,6.111679E-3,-4.191633E-2,-0E0,3.533576E-2,-0E0],"categories":[],"categories_nodes":[],"categories_segments":[],"categories_sizes":[],"default_left":[1,1,1,0,0,0,0],"id":111,"left_children":[1,3,5,-1,-1,-1,-1],"loss_changes":[1.0295057E0,5.878092E0,3.7296667E0,0E0,0E0,0E0,0E0],"parents":[2147483647,0,0,1,1,2,2],"right_children":[2,4,6,-1,-1,-1,-1],"split_conditions":[7.439805E1,4.959923E-1,3.2338638E-2,-8.383266E-3,-0E0,7.0671523E-3,-0E0],"split_indices":[35,39,40,0,0,0,0],"split_type":[0,0,0,0,0,0,0],"sum_hessian":[9.089303E3,4.564411E3,4.5248916E3,3.3246934E3,1.2397179E3,2.6373613E3,1.8875303E3],"tree_param":{"num_deleted":"0","num_feature":"55","num_nodes":"7","size_leaf_vector":"0"}},{"base_weights":[-0E0,-3.383985E-2,5.2663474E-4,-0E0,-6.448881E-2,4.9867544E-2,-6.9823232E-3],"categories":[],"categories_nodes":[],"categories_segments":[],"categories_sizes":[],"default_left":[1,1,1,0,0,0,0],"id":112,"left_children":[1,3,5,-1,-1,-1,-1],"loss_changes":[1.7617934E0,3.3889153E0,7.6303515E0,0E0,0E0,0E0,0E0],"parents":[2147483647,0,0,1,1,2,2],"right_children":[2,4,6,-1,-1,-1,-1],"split_conditions":[8.1752525E1,-1.1810312E0,1.7009317E2,-0E0,-1.28977625E-2,9.973509E-3,-1.3964646E-3],"split_indices":[20,49,20,0,0,0,0],"split_type":[0,0,0,0,0,0,0],"sum_hessian":[9.086349E3,1.0364312E3,8.049918E3,2.9849503E2,7.379361E2,2.4497366E3,5.600181E3],"tree_param":{"num_deleted":"0","num_feature":"55","num_nodes":"7","size_leaf_vector":"0"}},{"base_weights":[-0E0,3.5695669E-3,-2.864291E-2,-1.1257197E-2,2.8685354E-2,-0E0,-6.2533386E-2],"categories":[],"categories_nodes":[],"categories_segments":[],"categories_sizes":[],"default_left":[1,1,1,0,0,0,0],"id":113,"left_children":[1,3,5,-1,-1,-1,-1],"loss_changes":[1.7476058E0,4.900659E0,4.2995543E0,0E0,0E0,0E0,0E0],"parents":[2147483647,0,0,1,1,2,2],"right_children":[2,4,6,-1,-1,-1,-1],"split_conditions":[6.714383E1,4.641493E0,-8.865E2,-2.2514395E-3,5.737071E-3,-0E0,-1.2506678E-2],"split_indices":[2,16,0,0,0,0,0],"split_type":[0,0,0,0,0,0,0],"sum_hessian":[9.05163E3,7.546453E3,1.5051765E3,2.4150786E3,5.1313745E3,4.849746E2,1.0202019E3],"tree_param":{"num_deleted":"0","num_feature":"55","num_nodes":"7","size_leaf_vector":"0"}},{"base_weights":[-0E0,-2.9777208E-2,-0E0,-0E0,-6.2778465E-2,-2.545131E-2,1.8652719E-2],"categories":[],"categories_nodes":[],"categories_segments":[],"categories_sizes":[],"default_left":[1,1,1,0,0,0,0],"id":114,"left_children":[1,3,5,-1,-1,-1,-1],"loss_changes":[1.622296E0,4.7805786E0,3.6228447E0,0E0,0E0,0E0,0E0],"parents":[2147483647,0,0,1,1,2,2],"right_children":[2,4,6,-1,-1,-1,-1],"split_conditions":[-1.2545E3,2.2392135E0,1.097925E0,-0E0,-1.2555693E-2,-5.0902623E-3,3.7305437E-3],"split_indices":[1,37,46,0,0,0,0],"split_type":[0,0,0,0,0,0,0],"sum_hessian":[9.034695E3,1.3296252E3,7.7050703E3,2.0499875E2,1.1246265E3,1.4814968E3,6.223573E3],"tree_param":{"num_deleted":"0","num_feature":"55","num_nodes":"7","size_leaf_vector":"0"}},{"base_weights":[-0E0,-1.4122893E-2,9.415786E-3,-0E0,-3.4492936E-2,3.8446713E-2,-0E0],"categories":[],"categories_nodes":[],"categories_segments":[],"categories_sizes":[],"default_left":[1,1,1,0,0,0,0],"id":115,"left_children":[1,3,5,-1,-1,-1,-1],"loss_changes":[1.6367775E0,4.985611E0,3.6029904E0,0E0,0E0,0E0,0E0],"parents":[2147483647,0,0,1,1,2,2],"right_children":[2,4,6,-1,-1,-1,-1],"split_conditions":[5.0124645E0,5E-1,2.8026089E1,-0E0,-6.898587E-3,7.689343E-3,-0E0],"split_indices":[18,6,7,0,0,0,0],"split_type":[0,0,0,0,0,0,0],"sum_hessian":[9.035104E3,6.242791E3,2.7923118E3,1.421981E3,4.82081E3,2.1349675E3,6.5734436E2],"tree_param":{"num_deleted":"0","num_feature":"55","num_nodes":"7","size_leaf_vector":"0"}},{"base_weights":[-0E0,-3.3544652E-2,2.0020787E-4,-5.133337E-2,-0E0,1.8815793E-2,-1.8200954E-2],"categories":[],"categories_nodes":[],"categories_segments":[],"categories_sizes":[],"default_left":[1,1,1,0,0,0,0],"id":116,"left_children":[1,3,5,-1,-1,-1,-1],"loss_changes":[9.9623024E-1,1.0975807E0,3.3776212E0,0E0,0E0,0E0,0E0],"parents":[2147483647,0,0,1,1,2,2],"right_children":[2,4,6,-1,-1,-1,-1],"split_conditions":[3.4675343E1,5.364295E0,1.401477E2,-1.0266675E-2,-0E0,3.7631586E-3,-3.640191E-3],"split_indices":[2,23,11,0,0,0,0],"split_type":[0,0,0,0,0,0,0],"sum_hessian":[9.065925E3,3.8501923E2,8.680906E3,2.9444077E2,9.057843E1,7.01119E3,1.6697161E3],"tree_param":{"num_deleted":"0","num_feature":"55","num_nodes":"7","size_leaf_vector":"0"}},{"base_weights":[-0E0,7.8303255E-3,-1.1297931E-2,-7.258831E-3,4.7474295E-2,-4.2282403E-2,1.9077372E-2],"categories":[],"categories_nodes":[],"categories_segments":[],"categories_sizes":[],"default_left":[1,1,1,0,0,0,0],"id":117,"left_children":[1,3,5,-1,-1,-1,-1],"loss_changes":[1.0247213E0,6.5294404E0,8.514337E0,0E0,0E0,0E0,0E0],"parents":[2147483647,0,0,1,1,2,2],"right_children":[2,4,6,-1,-1,-1,-1],"split_conditions":[1.5808803E0,7.144029E1,5.751007E0,-1.4517662E-3,9.494859E-3,-8.456481E-3,3.8154745E-3],"split_indices":[22,8,23,0,0,0,0],"split_type":[0,0,0,0,0,0,0],"sum_hessian":[9.056915E3,3.4044023E3,5.652513E3,9.34655E2,2.4697473E3,4.3309033E3,1.3216097E3],"tree_param":{"num_deleted":"0","num_feature":"55","num_nodes":"7","size_leaf_vector":"0"}},{"base_weights":[-0E0,-1.2670636E-2,7.083142E-3,5.387525E-3,-5.4252584E-2,-5.4303952E-3,3.8179476E-2],"categories":[],"categories_nodes":[],"categories_segments":[],"categories_sizes":[],"default_left":[1,1,1,0,0,0,0],"id":118,"left_children":[1,3,5,-1,-1,-1,-1],"loss_changes":[1.075588E0,8.914432E0,5.283772E0,0E0,0E0,0E0,0E0],"parents":[2147483647,0,0,1,1,2,2],"right_children":[2,4,6,-1,-1,-1,-1],"split_conditions":[1.5E0,4.0478095E-1,-1.0635E3,1.0775051E-3,-1.0850517E-2,-1.086079E-3,7.635895E-3],"split_indices":[50,45,0,0,0,0,0],"split_type":[0,0,0,0,0,0,0],"sum_hessian":[9.06566E3,4.6695503E3,4.39611E3,1.8823945E3,2.787156E3,1.1358865E3,3.2602234E3],"tree_param":{"num_deleted":"0","num_feature":"55","num_nodes":"7","size_leaf_vector":"0"}},{"base_weights":[-0E0,-1.8176664E-2,3.8938513E-3,-3.8979687E-2,-0E0,2.9640824E-2,-0E0],"categories":[],"categories_nodes":[],"categories_segments":[],"categories_sizes":[],"default_left":[1,1,1,0,0,0,0],"id":119,"left_children":[1,3,5,-1,-1,-1,-1],"loss_changes":[1.7281044E0,5.1869497E0,3.0490968E0,0E0,0E0,0E0,0E0],"parents":[2147483647,0,0,1,1,2,2],"right_children":[2,4,6,-1,-1,-1,-1],"split_conditions":[2.6992874E1,9.211429E0,7.6933334E1,-7.7959374E-3,-0E0,5.928165E-3,-0E0],"split_indices":[14,26,28,0,0,0,0],"split_type":[0,0,0,0,0,0,0],"sum_hessian":[9.044413E3,4.498937E3,4.5454766E3,4.0007783E3,4.9815863E2,3.0575613E3,1.4879152E3],"tree_param":{"num_deleted":"0","num_feature":"55","num_nodes":"7","size_leaf_vector":"0"}},{"base_weights":[-0E0,-1.0382967E-2,2.2450643E-2,-2.8401436E-2,-0E0,-0E0,4.623717E-2],"categories":[],"categories_nodes":[],"categories_segments":[],"categories_sizes":[],"default_left":[1,1,1,0,0,0,0],"id":120,"left_children":[1,3,5,-1,-1,-1,-1],"loss_changes":[2.1014106E0,4.0540423E0,3.346573E0,0E0,0E0,0E0,0E0],"parents":[2147483647,0,0,1,1,2,2],"right_children":[2,4,6,-1,-1,-1,-1],"split_conditions":[2.4615588E0,2.871866E2,-1.093E3,-5.6802873E-3,-0E0,-0E0,9.247434E-3],"split_indices":[37,33,1,0,0,0,0],"split_type":[0,0,0,0,0,0,0],"sum_hessian":[9.03909E3,6.9669766E3,2.0721128E3,5.523775E3,1.4432018E3,4.003314E2,1.6717814E3],"tree_param":{"num_deleted":"0","num_feature":"55","num_nodes":"7","size_leaf_vector":"0"}},{"base_weights":[-0E0,-4.6473652E-2,4.433045E-3,-5.679774E-2,-0E0,-1.0604765E-2,1.8502155E-2],"categories":[],"categories_nodes":[],"categories_segments":[],"categories_sizes":[],"default_left":[1,1,1,0,0,0,0],"id":121,"left_children":[1,3,5,-1,-1,-1,-1],"loss_changes":[2.0877175E0,8.7901115E-1,2.8233006E0,0E0,0E0,0E0,0E0],"parents":[2147483647,0,0,1,1,2,2],"right_children":[2,4,6,-1,-1,-1,-1],"split_conditions":[3.4675343E1,4.08E2,6.3984E1,-1.1359548E-2,-0E0,-2.120953E-3,3.7004312E-3],"split_indices":[2,15,8,0,0,0,0],"split_type":[0,0,0,0,0,0,0],"sum_hessian":[9.031514E3,3.8338696E2,8.648126E3,3.6390735E2,1.9479618E1,8.040566E2,7.84407E3],"tree_param":{"num_deleted":"0","num_feature":"55","num_nodes":"7","size_leaf_vector":"0"}},{"base_weights":[-0E0,-4.3177363E-2,2.5474941E-3,-5.6374613E-2,-0E0,5.0263595E-2,-0E0],"categories":[],"categories_nodes":[],"categories_segments":[],"categories_sizes":[],"default_left":[1,1,1,0,0,0,0],"id":122,"left_children":[1,3,5,-1,-1,-1,-1],"loss_changes":[1.3517087E0,8.544688E-1,4.162619E0,0E0,0E0,0E0,0E0],"parents":[2147483647,0,0,1,1,2,2],"right_children":[2,4,6,-1,-1,-1,-1],"split_conditions":[1.31E1,4.75E0,-1.1812584E0,-1.1274923E-2,-0E0,1.0052719E-2,-0E0],"split_indices":[48,30,49,0,0,0,0],"split_type":[0,0,0,0,0,0,0],"sum_hessian":[9.033834E3,1.9253712E2,8.841297E3,1.7510686E2,1.7430258E1,1.1716251E3,7.669672E3],"tree_param":{"num_deleted":"0","num_feature":"55","num_nodes":"7","size_leaf_vector":"0"}},{"base_weights":[-0E0,-5.230402E-3,3.192602E-2,3.789489E-3,-2.4010789E-2,6.05701E-2,-0E0],"categories":[],"categories_nodes":[],"categories_segments":[],"categories_sizes":[],"default_left":[1,1,1,0,0,0,0],"id":123,"left_children":[1,3,5,-1,-1,-1,-1],"loss_changes":[2.1026073E0,3.459261E0,4.4565063E0,0E0,0E0,0E0,0E0],"parents":[2147483647,0,0,1,1,2,2],"right_children":[2,4,6,-1,-1,-1,-1],"split_conditions":[4.718486E1,4.7818785E0,4.23E1,7.578978E-4,-4.8021576E-3,1.211402E-2,-0E0],"split_indices":[25,32,48,0,0,0,0],"split_type":[0,0,0,0,0,0,0],"sum_hessian":[9.057595E3,7.715236E3,1.3423584E3,1.8845339E3,5.830702E3,1.2265801E3,1.1577824E2],"tree_param":{"num_deleted":"0","num_feature":"55","num_nodes":"7","size_leaf_vector":"0"}},{"base_weights":[-0E0,8.661722E-3,-1.0665446E-2,-5.059216E-3,2.8216023E-2,-3.6283903E-2,-0E0],"categories":[],"categories_nodes":[],"categories_segments":[],"categories_sizes":[],"default_left":[1,1,1,0,0,0,0],"id":124,"left_children":[1,3,5,-1,-1,-1,-1],"loss_changes":[8.4090173E-1,4.501677E0,1.9309002E0,0E0,0E0,0E0,0E0],"parents":[2147483647,0,0,1,1,2,2],"right_children":[2,4,6,-1,-1,-1,-1],"split_conditions":[1.4020267E2,1.1374802E2,2.7438007E1,-1.0118432E-3,5.643205E-3,-7.2567808E-3,-0E0],"split_indices":[11,11,36,0,0,0,0],"split_type":[0,0,0,0,0,0,0],"sum_hessian":[9.07564E3,7.381456E3,1.6941841E3,1.5503046E3,5.8311514E3,1.1562526E3,5.379314E2],"tree_param":{"num_deleted":"0","num_feature":"55","num_nodes":"7","size_leaf_vector":"0"}},{"base_weights":[-0E0,-4.4676542E-2,-0E0,-0E0,-6.489178E-2,4.5584742E-2,-0E0],"categories":[],"categories_nodes":[],"categories_segments":[],"categories_sizes":[],"default_left":[1,1,1,0,0,0,0],"id":125,"left_children":[1,3,5,-1,-1,-1,-1],"loss_changes":[1.6729945E0,1.7128643E0,3.25928E0,0E0,0E0,0E0,0E0],"parents":[2147483647,0,0,1,1,2,2],"right_children":[2,4,6,-1,-1,-1,-1],"split_conditions":[1.53E1,9.619768E1,-1.1924577E0,-0E0,-1.2978355E-2,9.116949E-3,-0E0],"split_indices":[48,31,49,0,0,0,0],"split_type":[0,0,0,0,0,0,0],"sum_hessian":[9.066184E3,3.3817636E2,8.728008E3,3.411436E1,3.0406198E2,1.0684932E3,7.659514E3],"tree_param":{"num_deleted":"0","num_feature":"55","num_nodes":"7","size_leaf_vector":"0"}},{"base_weights":[-0E0,1.5249914E-2,-5.694582E-3,-0E0,5.2954458E-2,-0E0,-3.508792E-2],"categories":[],"categories_nodes":[],"categories_segments":[],"categories_sizes":[],"default_left":[1,1,1,0,0,0,0],"id":126,"left_children":[1,3,5,-1,-1,-1,-1],"loss_changes":[1.1470917E0,7.3161626E0,4.2576666E0,0E0,0E0,0E0,0E0],"parents":[2147483647,0,0,1,1,2,2],"right_children":[2,4,6,-1,-1,-1,-1],"split_conditions":[2.3045212E2,2.97E1,1.6763077E0,-0E0,1.0590891E-2,-0E0,-7.017584E-3],"split_indices":[33,48,22,0,0,0,0],"split_type":[0,0,0,0,0,0,0],"sum_hessian":[9.03313E3,3.605972E3,5.427158E3,1.1564242E3,2.4495479E3,2.3127896E3,3.1143687E3],"tree_param":{"num_deleted":"0","num_feature":"55","num_nodes":"7","size_leaf_vector":"0"}},{"base_weights":[-0E0,-2.223845E-2,-0E0,-5.4366887E-2,-0E0,2.1700837E-2,-1.3015676E-2],"categories":[],"categories_nodes":[],"categories_segments":[],"categories_sizes":[],"default_left":[1,1,1,0,0,0,0],"id":127,"left_children":[1,3,5,-1,-1,-1,-1],"loss_changes":[1.3173804E0,3.7981863E0,3.0543287E0,0E0,0E0,0E0,0E0],"parents":[2147483647,0,0,1,1,2,2],"right_children":[2,4,6,-1,-1,-1,-1],"split_conditions":[5.1595182E0,3.039338E2,4.6617426E-2,-1.0873377E-2,-0E0,4.3401676E-3,-2.6031353E-3],"split_indices":[21,15,40,0,0,0,0],"split_type":[0,0,0,0,0,0,0],"sum_hessian":[9.024839E3,2.1638035E3,6.861035E3,1.2307119E3,9.3309155E2,5.213108E3,1.6479272E3],"tree_param":{"num_deleted":"0","num_feature":"55","num_nodes":"7","size_leaf_vector":"0"}},{"base_weights":[-0E0,-0E0,-3.8336754E-2,2.281623E-2,-7.12918E-3,-6.3316934E-2,-0E0],"categories":[],"categories_nodes":[],"categories_segments":[],"categories_sizes":[],"default_left":[1,1,1,0,0,0,0],"id":128,"left_children":[1,3,5,-1,-1,-1,-1],"loss_changes":[1.9417685E0,2.8990128E0,3.1593199E0,0E0,0E0,0E0,0E0],"parents":[2147483647,0,0,1,1,2,2],"right_children":[2,4,6,-1,-1,-1,-1],"split_conditions":[9.566779E-1,3.099775E-2,3.2915676E1,4.563246E-3,-1.425836E-3,-1.2663387E-2,-0E0],"split_indices":[12,40,7,0,0,0,0],"split_type":[0,0,0,0,0,0,0],"sum_hessian":[9.0508125E3,8.229618E3,8.211947E2,4.672728E3,3.5568896E3,7.723985E2,4.8796165E1],"tree_param":{"num_deleted":"0","num_feature":"55","num_nodes":"7","size_leaf_vector":"0"}},{"base_weights":[-4.0749973E-3,-0E0,-2.0497244E-2,4.1702867E-2,-0E0,-3.6271125E-2,-0E0],"categories":[],"categories_nodes":[],"categories_segments":[],"categories_sizes":[],"default_left":[1,1,1,0,0,0,0],"id":129,"left_children":[1,3,5,-1,-1,-1,-1],"loss_changes":[2.5249043E0,2.3088624E0,5.0573916E0,0E0,0E0,0E0,0E0],"parents":[2147483647,0,0,1,1,2,2],"right_children":[2,4,6,-1,-1,-1,-1],"split_conditions":[2.2299667E1,1.0100667E2,7.997794E1,8.340574E-3,-0E0,-7.254225E-3,-0E0],"split_indices":[42,31,19,0,0,0,0],"split_type":[0,0,0,0,0,0,0],"sum_hessian":[9.042547E3,3.155669E3,5.886878E3,8.2759686E2,2.3280723E3,5.3838457E3,5.030324E2],"tree_param":{"num_deleted":"0","num_feature":"55","num_nodes":"7","size_leaf_vector":"0"}},{"base_weights":[-0E0,3.9520115E-3,-3.3643585E-2,-4.0746227E-2,2.3497252E-2,-0E0,-7.067893E-2],"categories":[],"categories_nodes":[],"categories_segments":[],"categories_sizes":[],"default_left":[1,1,1,0,0,0,0],"id":130,"left_children":[1,3,5,-1,-1,-1,-1],"loss_changes":[3.740649E0,4.6967783E0,1.0796253E1,0E0,0E0,0E0,0E0],"parents":[2147483647,0,0,1,1,2,2],"right_children":[2,4,6,-1,-1,-1,-1],"split_conditions":[1.2160925E1,1.47E1,3.659823E-1,-8.149246E-3,4.6994505E-3,-0E0,-1.4135785E-2],"split_indices":[41,48,12,0,0,0,0],"split_type":[0,0,0,0,0,0,0],"sum_hessian":[9.013463E3,6.3025483E3,2.7109138E3,1.9588507E2,6.1066636E3,3.2218896E2,2.3887249E3],"tree_param":{"num_deleted":"0","num_feature":"55","num_nodes":"7","size_leaf_vector":"0"}},{"base_weights":[-0E0,-1.32970605E-2,6.8214196E-3,-3.637207E-2,-0E0,5.7496995E-2,-0E0],"categories":[],"categories_nodes":[],"categories_segments":[],"categories_sizes":[],"default_left":[1,1,1,0,0,0,0],"id":131,"left_children":[1,3,5,-1,-1,-1,-1],"loss_changes":[1.439641E0,5.114895E0,6.484209E0,0E0,0E0,0E0,0E0],"parents":[2147483647,0,0,1,1,2,2],"right_children":[2,4,6,-1,-1,-1,-1],"split_conditions":[3.898052E-1,5.603639E0,5.5495768E0,-7.274414E-3,-0E0,1.1499399E-2,-0E0],"split_indices":[34,32,32,0,0,0,0],"split_type":[0,0,0,0,0,0,0],"sum_hessian":[9.039703E3,6.964502E3,2.0752007E3,4.3639917E3,2.6005105E3,1.4976494E3,5.775514E2],"tree_param":{"num_deleted":"0","num_feature":"55","num_nodes":"7","size_leaf_vector":"0"}},{"base_weights":[-0E0,-2.4649307E-2,3.6232376E-3,-5.2380487E-2,-0E0,2.7472423E-2,-1.22680785E-2],"categories":[],"categories_nodes":[],"categories_segments":[],"categories_sizes":[],"default_left":[1,1,1,0,0,0,0],"id":132,"left_children":[1,3,5,-1,-1,-1,-1],"loss_changes":[1.507893E0,4.1232204E0,4.6217184E0,0E0,0E0,0E0,0E0],"parents":[2147483647,0,0,1,1,2,2],